digraph Tree {
node [shape=box, style="filled, rounded", color="black", fontname=helvetica] ;
edge [fontname=helvetica] ;
0 [label=<Power &le; 164.85<br/>mse = 125.161<br/>samples = 4514<br/>value = 9.482>, fillcolor="#fef8f4"] ;
1 [label=<Engine &le; 1958.0<br/>mse = 18.174<br/>samples = 3711<br/>value = 5.833>, fillcolor="#fefbf8"] ;
0 -> 1 [labeldistance=2.5, labelangle=45, headlabel="True"] ;
2 [label=<Year &le; 2013.5<br/>mse = 8.67<br/>samples = 3163<br/>value = 4.96>, fillcolor="#fefbf9"] ;
1 -> 2 ;
3 [label=<Year &le; 2011.5<br/>mse = 4.226<br/>samples = 1380<br/>value = 3.283>, fillcolor="#fffdfb"] ;
2 -> 3 ;
4 [label=<Engine &le; 1610.027<br/>mse = 4.241<br/>samples = 774<br/>value = 2.597>, fillcolor="#fffdfc"] ;
3 -> 4 ;
5 [label=<Year &le; 2008.5<br/>mse = 0.982<br/>samples = 674<br/>value = 2.348>, fillcolor="#fffdfd"] ;
4 -> 5 ;
6 [label=<Year &le; 2005.5<br/>mse = 0.44<br/>samples = 222<br/>value = 1.571>, fillcolor="#fffefe"] ;
5 -> 6 ;
7 [label=<Year &le; 2003.5<br/>mse = 0.123<br/>samples = 65<br/>value = 1.052>, fillcolor="#fffffe"] ;
6 -> 7 ;
8 [label=<Mileage &le; 13.1<br/>mse = 0.072<br/>samples = 24<br/>value = 0.849>, fillcolor="#fffffe"] ;
7 -> 8 ;
9 [label=<Kilometers_Driven &le; 132971.5<br/>mse = 0.039<br/>samples = 4<br/>value = 1.2>, fillcolor="#fffefe"] ;
8 -> 9 ;
10 [label=<Kilometers_Driven &le; 105471.5<br/>mse = 0.012<br/>samples = 3<br/>value = 1.3>, fillcolor="#fffefe"] ;
9 -> 10 ;
11 [label=<Power &le; 86.55<br/>mse = 0.001<br/>samples = 2<br/>value = 1.225>, fillcolor="#fffefe"] ;
10 -> 11 ;
12 [label=<mse = 0.0<br/>samples = 1<br/>value = 1.25>, fillcolor="#fffefe"] ;
11 -> 12 ;
13 [label=<mse = -0.0<br/>samples = 1<br/>value = 1.2>, fillcolor="#fffefe"] ;
11 -> 13 ;
14 [label=<mse = 0.0<br/>samples = 1<br/>value = 1.45>, fillcolor="#fffefe"] ;
10 -> 14 ;
15 [label=<mse = -0.0<br/>samples = 1<br/>value = 0.9>, fillcolor="#fffffe"] ;
9 -> 15 ;
16 [label=<Location &le; 4.0<br/>mse = 0.049<br/>samples = 20<br/>value = 0.779>, fillcolor="#ffffff"] ;
8 -> 16 ;
17 [label=<Engine &le; 1073.5<br/>mse = 0.035<br/>samples = 7<br/>value = 0.967>, fillcolor="#fffffe"] ;
16 -> 17 ;
18 [label=<Name &le; 1094.0<br/>mse = 0.017<br/>samples = 4<br/>value = 1.08>, fillcolor="#fffefe"] ;
17 -> 18 ;
19 [label=<Mileage &le; 18.624<br/>mse = 0.0<br/>samples = 2<br/>value = 1.21>, fillcolor="#fffefe"] ;
18 -> 19 ;
20 [label=<mse = 0.0<br/>samples = 1<br/>value = 1.2>, fillcolor="#fffefe"] ;
19 -> 20 ;
21 [label=<mse = 0.0<br/>samples = 1<br/>value = 1.22>, fillcolor="#fffefe"] ;
19 -> 21 ;
22 [label=<mse = 0.0<br/>samples = 2<br/>value = 0.95>, fillcolor="#fffffe"] ;
18 -> 22 ;
23 [label=<Year &le; 2001.5<br/>mse = 0.021<br/>samples = 3<br/>value = 0.817>, fillcolor="#ffffff"] ;
17 -> 23 ;
24 [label=<mse = 0.0<br/>samples = 1<br/>value = 1.0>, fillcolor="#fffffe"] ;
23 -> 24 ;
25 [label=<Mileage &le; 16.074<br/>mse = 0.006<br/>samples = 2<br/>value = 0.725>, fillcolor="#ffffff"] ;
23 -> 25 ;
26 [label=<mse = 0.0<br/>samples = 1<br/>value = 0.8>, fillcolor="#ffffff"] ;
25 -> 26 ;
27 [label=<mse = -0.0<br/>samples = 1<br/>value = 0.65>, fillcolor="#ffffff"] ;
25 -> 27 ;
28 [label=<Mileage &le; 18.624<br/>mse = 0.027<br/>samples = 13<br/>value = 0.678>, fillcolor="#ffffff"] ;
16 -> 28 ;
29 [label=<Engine &le; 1270.0<br/>mse = 0.013<br/>samples = 11<br/>value = 0.624>, fillcolor="#ffffff"] ;
28 -> 29 ;
30 [label=<Owner_Type &le; 2.5<br/>mse = 0.006<br/>samples = 8<br/>value = 0.57>, fillcolor="#ffffff"] ;
29 -> 30 ;
31 [label=<Name &le; 945.5<br/>mse = 0.005<br/>samples = 4<br/>value = 0.62>, fillcolor="#ffffff"] ;
30 -> 31 ;
32 [label=<mse = 0.0<br/>samples = 1<br/>value = 0.5>, fillcolor="#ffffff"] ;
31 -> 32 ;
33 [label=<Year &le; 2001.0<br/>mse = 0.001<br/>samples = 3<br/>value = 0.66>, fillcolor="#ffffff"] ;
31 -> 33 ;
34 [label=<mse = 0.0<br/>samples = 1<br/>value = 0.7>, fillcolor="#ffffff"] ;
33 -> 34 ;
35 [label=<Owner_Type &le; 1.0<br/>mse = 0.0<br/>samples = 2<br/>value = 0.64>, fillcolor="#ffffff"] ;
33 -> 35 ;
36 [label=<mse = 0.0<br/>samples = 1<br/>value = 0.65>, fillcolor="#ffffff"] ;
35 -> 36 ;
37 [label=<mse = 0.0<br/>samples = 1<br/>value = 0.63>, fillcolor="#ffffff"] ;
35 -> 37 ;
38 [label=<Kilometers_Driven &le; 82575.0<br/>mse = 0.002<br/>samples = 4<br/>value = 0.52>, fillcolor="#ffffff"] ;
30 -> 38 ;
39 [label=<mse = 0.0<br/>samples = 2<br/>value = 0.55>, fillcolor="#ffffff"] ;
38 -> 39 ;
40 [label=<Name &le; 1227.5<br/>mse = 0.002<br/>samples = 2<br/>value = 0.49>, fillcolor="#ffffff"] ;
38 -> 40 ;
41 [label=<mse = 0.0<br/>samples = 1<br/>value = 0.53>, fillcolor="#ffffff"] ;
40 -> 41 ;
42 [label=<mse = 0.0<br/>samples = 1<br/>value = 0.45>, fillcolor="#ffffff"] ;
40 -> 42 ;
43 [label=<Engine &le; 1546.0<br/>mse = 0.004<br/>samples = 3<br/>value = 0.767>, fillcolor="#ffffff"] ;
29 -> 43 ;
44 [label=<Location &le; 8.0<br/>mse = 0.001<br/>samples = 2<br/>value = 0.725>, fillcolor="#ffffff"] ;
43 -> 44 ;
45 [label=<mse = 0.0<br/>samples = 1<br/>value = 0.7>, fillcolor="#ffffff"] ;
44 -> 45 ;
46 [label=<mse = 0.0<br/>samples = 1<br/>value = 0.75>, fillcolor="#ffffff"] ;
44 -> 46 ;
47 [label=<mse = -0.0<br/>samples = 1<br/>value = 0.85>, fillcolor="#fffffe"] ;
43 -> 47 ;
48 [label=<Mileage &le; 19.3<br/>mse = 0.001<br/>samples = 2<br/>value = 0.975>, fillcolor="#fffffe"] ;
28 -> 48 ;
49 [label=<mse = 0.0<br/>samples = 1<br/>value = 1.0>, fillcolor="#fffffe"] ;
48 -> 49 ;
50 [label=<mse = -0.0<br/>samples = 1<br/>value = 0.95>, fillcolor="#fffffe"] ;
48 -> 50 ;
51 [label=<Location &le; 3.5<br/>mse = 0.115<br/>samples = 41<br/>value = 1.171>, fillcolor="#fffefe"] ;
7 -> 51 ;
52 [label=<Name &le; 599.5<br/>mse = 0.102<br/>samples = 9<br/>value = 1.47>, fillcolor="#fffefe"] ;
51 -> 52 ;
53 [label=<Location &le; 1.0<br/>mse = 0.025<br/>samples = 4<br/>value = 1.745>, fillcolor="#fffefd"] ;
52 -> 53 ;
54 [label=<mse = 0.0<br/>samples = 1<br/>value = 1.51>, fillcolor="#fffefe"] ;
53 -> 54 ;
55 [label=<Engine &le; 1495.0<br/>mse = 0.009<br/>samples = 3<br/>value = 1.823>, fillcolor="#fffefd"] ;
53 -> 55 ;
56 [label=<Engine &le; 1246.0<br/>mse = 0.0<br/>samples = 2<br/>value = 1.755>, fillcolor="#fffefd"] ;
55 -> 56 ;
57 [label=<mse = 0.0<br/>samples = 1<br/>value = 1.75>, fillcolor="#fffefd"] ;
56 -> 57 ;
58 [label=<mse = 0.0<br/>samples = 1<br/>value = 1.76>, fillcolor="#fffefd"] ;
56 -> 58 ;
59 [label=<mse = 0.0<br/>samples = 1<br/>value = 1.96>, fillcolor="#fffefd"] ;
55 -> 59 ;
60 [label=<Engine &le; 1192.0<br/>mse = 0.055<br/>samples = 5<br/>value = 1.25>, fillcolor="#fffefe"] ;
52 -> 60 ;
61 [label=<Mileage &le; 18.624<br/>mse = 0.005<br/>samples = 4<br/>value = 1.362>, fillcolor="#fffefe"] ;
60 -> 61 ;
62 [label=<Kilometers_Driven &le; 116500.0<br/>mse = 0.002<br/>samples = 3<br/>value = 1.4>, fillcolor="#fffefe"] ;
61 -> 62 ;
63 [label=<Mileage &le; 15.65<br/>mse = 0.001<br/>samples = 2<br/>value = 1.425>, fillcolor="#fffefe"] ;
62 -> 63 ;
64 [label=<mse = 0.0<br/>samples = 1<br/>value = 1.45>, fillcolor="#fffefe"] ;
63 -> 64 ;
65 [label=<mse = 0.0<br/>samples = 1<br/>value = 1.4>, fillcolor="#fffefe"] ;
63 -> 65 ;
66 [label=<mse = -0.0<br/>samples = 1<br/>value = 1.35>, fillcolor="#fffefe"] ;
62 -> 66 ;
67 [label=<mse = 0.0<br/>samples = 1<br/>value = 1.25>, fillcolor="#fffefe"] ;
61 -> 67 ;
68 [label=<mse = 0.0<br/>samples = 1<br/>value = 0.8>, fillcolor="#ffffff"] ;
60 -> 68 ;
69 [label=<Name &le; 415.5<br/>mse = 0.087<br/>samples = 32<br/>value = 1.087>, fillcolor="#fffefe"] ;
51 -> 69 ;
70 [label=<Location &le; 9.5<br/>mse = 0.045<br/>samples = 6<br/>value = 1.375>, fillcolor="#fffefe"] ;
69 -> 70 ;
71 [label=<Kilometers_Driven &le; 93399.0<br/>mse = 0.01<br/>samples = 2<br/>value = 1.6>, fillcolor="#fffefe"] ;
70 -> 71 ;
72 [label=<mse = 0.0<br/>samples = 1<br/>value = 1.7>, fillcolor="#fffefd"] ;
71 -> 72 ;
73 [label=<mse = -0.0<br/>samples = 1<br/>value = 1.5>, fillcolor="#fffefe"] ;
71 -> 73 ;
74 [label=<Kilometers_Driven &le; 124218.5<br/>mse = 0.024<br/>samples = 4<br/>value = 1.262>, fillcolor="#fffefe"] ;
70 -> 74 ;
75 [label=<Engine &le; 1418.0<br/>mse = 0.007<br/>samples = 3<br/>value = 1.183>, fillcolor="#fffefe"] ;
74 -> 75 ;
76 [label=<mse = 0.0<br/>samples = 1<br/>value = 1.3>, fillcolor="#fffefe"] ;
75 -> 76 ;
77 [label=<Mileage &le; 13.6<br/>mse = 0.001<br/>samples = 2<br/>value = 1.125>, fillcolor="#fffefe"] ;
75 -> 77 ;
78 [label=<mse = 0.0<br/>samples = 1<br/>value = 1.15>, fillcolor="#fffefe"] ;
77 -> 78 ;
79 [label=<mse = -0.0<br/>samples = 1<br/>value = 1.1>, fillcolor="#fffefe"] ;
77 -> 79 ;
80 [label=<mse = 0.0<br/>samples = 1<br/>value = 1.5>, fillcolor="#fffefe"] ;
74 -> 80 ;
81 [label=<Seats &le; 4.5<br/>mse = 0.073<br/>samples = 26<br/>value = 1.021>, fillcolor="#fffffe"] ;
69 -> 81 ;
82 [label=<mse = 0.0<br/>samples = 1<br/>value = 0.45>, fillcolor="#ffffff"] ;
81 -> 82 ;
83 [label=<Owner_Type &le; 1.0<br/>mse = 0.062<br/>samples = 25<br/>value = 1.044>, fillcolor="#fffffe"] ;
81 -> 83 ;
84 [label=<Location &le; 4.5<br/>mse = 0.021<br/>samples = 8<br/>value = 0.85>, fillcolor="#fffffe"] ;
83 -> 84 ;
85 [label=<mse = 0.0<br/>samples = 1<br/>value = 1.1>, fillcolor="#fffefe"] ;
84 -> 85 ;
86 [label=<Kilometers_Driven &le; 49500.0<br/>mse = 0.013<br/>samples = 7<br/>value = 0.814>, fillcolor="#ffffff"] ;
84 -> 86 ;
87 [label=<Kilometers_Driven &le; 45100.0<br/>mse = 0.001<br/>samples = 3<br/>value = 0.917>, fillcolor="#fffffe"] ;
86 -> 87 ;
88 [label=<mse = 0.0<br/>samples = 1<br/>value = 0.95>, fillcolor="#fffffe"] ;
87 -> 88 ;
89 [label=<mse = 0.0<br/>samples = 2<br/>value = 0.9>, fillcolor="#fffffe"] ;
87 -> 89 ;
90 [label=<Kilometers_Driven &le; 130000.0<br/>mse = 0.009<br/>samples = 4<br/>value = 0.737>, fillcolor="#ffffff"] ;
86 -> 90 ;
91 [label=<Kilometers_Driven &le; 80000.0<br/>mse = 0.003<br/>samples = 2<br/>value = 0.65>, fillcolor="#ffffff"] ;
90 -> 91 ;
92 [label=<mse = 0.0<br/>samples = 1<br/>value = 0.7>, fillcolor="#ffffff"] ;
91 -> 92 ;
93 [label=<mse = 0.0<br/>samples = 1<br/>value = 0.6>, fillcolor="#ffffff"] ;
91 -> 93 ;
94 [label=<Fuel_Type &le; 2.5<br/>mse = 0.001<br/>samples = 2<br/>value = 0.825>, fillcolor="#ffffff"] ;
90 -> 94 ;
95 [label=<mse = 0.0<br/>samples = 1<br/>value = 0.85>, fillcolor="#fffffe"] ;
94 -> 95 ;
96 [label=<mse = 0.0<br/>samples = 1<br/>value = 0.8>, fillcolor="#ffffff"] ;
94 -> 96 ;
97 [label=<Kilometers_Driven &le; 90500.0<br/>mse = 0.056<br/>samples = 17<br/>value = 1.135>, fillcolor="#fffefe"] ;
83 -> 97 ;
98 [label=<Kilometers_Driven &le; 87030.0<br/>mse = 0.044<br/>samples = 7<br/>value = 1.307>, fillcolor="#fffefe"] ;
97 -> 98 ;
99 [label=<Name &le; 425.0<br/>mse = 0.004<br/>samples = 6<br/>value = 1.225>, fillcolor="#fffefe"] ;
98 -> 99 ;
100 [label=<mse = 0.0<br/>samples = 1<br/>value = 1.1>, fillcolor="#fffefe"] ;
99 -> 100 ;
101 [label=<Engine &le; 894.5<br/>mse = 0.001<br/>samples = 5<br/>value = 1.25>, fillcolor="#fffefe"] ;
99 -> 101 ;
102 [label=<mse = 0.0<br/>samples = 1<br/>value = 1.3>, fillcolor="#fffefe"] ;
101 -> 102 ;
103 [label=<Engine &le; 1548.0<br/>mse = 0.0<br/>samples = 4<br/>value = 1.238>, fillcolor="#fffefe"] ;
101 -> 103 ;
104 [label=<mse = 0.0<br/>samples = 3<br/>value = 1.25>, fillcolor="#fffefe"] ;
103 -> 104 ;
105 [label=<mse = -0.0<br/>samples = 1<br/>value = 1.2>, fillcolor="#fffefe"] ;
103 -> 105 ;
106 [label=<mse = 0.0<br/>samples = 1<br/>value = 1.8>, fillcolor="#fffefd"] ;
98 -> 106 ;
107 [label=<Power &le; 97.968<br/>mse = 0.029<br/>samples = 10<br/>value = 1.014>, fillcolor="#fffffe"] ;
97 -> 107 ;
108 [label=<Name &le; 871.0<br/>mse = 0.011<br/>samples = 6<br/>value = 0.932>, fillcolor="#fffffe"] ;
107 -> 108 ;
109 [label=<Name &le; 550.5<br/>mse = 0.001<br/>samples = 2<br/>value = 0.825>, fillcolor="#ffffff"] ;
108 -> 109 ;
110 [label=<mse = 0.0<br/>samples = 1<br/>value = 0.85>, fillcolor="#fffffe"] ;
109 -> 110 ;
111 [label=<mse = 0.0<br/>samples = 1<br/>value = 0.8>, fillcolor="#ffffff"] ;
109 -> 111 ;
112 [label=<Kilometers_Driven &le; 157500.0<br/>mse = 0.008<br/>samples = 4<br/>value = 0.985>, fillcolor="#fffffe"] ;
108 -> 112 ;
113 [label=<Kilometers_Driven &le; 93000.0<br/>mse = 0.002<br/>samples = 3<br/>value = 1.03>, fillcolor="#fffffe"] ;
112 -> 113 ;
114 [label=<mse = 0.0<br/>samples = 1<br/>value = 1.1>, fillcolor="#fffefe"] ;
113 -> 114 ;
115 [label=<Name &le; 1192.5<br/>mse = 0.0<br/>samples = 2<br/>value = 0.995>, fillcolor="#fffffe"] ;
113 -> 115 ;
116 [label=<mse = 0.0<br/>samples = 1<br/>value = 1.0>, fillcolor="#fffffe"] ;
115 -> 116 ;
117 [label=<mse = 0.0<br/>samples = 1<br/>value = 0.99>, fillcolor="#fffffe"] ;
115 -> 117 ;
118 [label=<mse = 0.0<br/>samples = 1<br/>value = 0.85>, fillcolor="#fffffe"] ;
112 -> 118 ;
119 [label=<Name &le; 605.0<br/>mse = 0.029<br/>samples = 4<br/>value = 1.138>, fillcolor="#fffefe"] ;
107 -> 119 ;
120 [label=<Kilometers_Driven &le; 114000.0<br/>mse = 0.031<br/>samples = 2<br/>value = 1.025>, fillcolor="#fffffe"] ;
119 -> 120 ;
121 [label=<mse = 0.0<br/>samples = 1<br/>value = 0.85>, fillcolor="#fffffe"] ;
120 -> 121 ;
122 [label=<mse = 0.0<br/>samples = 1<br/>value = 1.2>, fillcolor="#fffefe"] ;
120 -> 122 ;
123 [label=<Fuel_Type &le; 0.5<br/>mse = 0.003<br/>samples = 2<br/>value = 1.25>, fillcolor="#fffefe"] ;
119 -> 123 ;
124 [label=<mse = 0.0<br/>samples = 1<br/>value = 1.2>, fillcolor="#fffefe"] ;
123 -> 124 ;
125 [label=<mse = -0.0<br/>samples = 1<br/>value = 1.3>, fillcolor="#fffefe"] ;
123 -> 125 ;
126 [label=<Power &le; 74.95<br/>mse = 0.414<br/>samples = 157<br/>value = 1.786>, fillcolor="#fffefd"] ;
6 -> 126 ;
127 [label=<Kilometers_Driven &le; 129000.0<br/>mse = 0.236<br/>samples = 79<br/>value = 1.535>, fillcolor="#fffefe"] ;
126 -> 127 ;
128 [label=<Power &le; 62.05<br/>mse = 0.215<br/>samples = 69<br/>value = 1.616>, fillcolor="#fffefe"] ;
127 -> 128 ;
129 [label=<Mileage &le; 17.25<br/>mse = 0.088<br/>samples = 22<br/>value = 1.355>, fillcolor="#fffefe"] ;
128 -> 129 ;
130 [label=<Kilometers_Driven &le; 61000.0<br/>mse = 0.005<br/>samples = 3<br/>value = 0.95>, fillcolor="#fffffe"] ;
129 -> 130 ;
131 [label=<mse = 0.0<br/>samples = 1<br/>value = 0.85>, fillcolor="#fffffe"] ;
130 -> 131 ;
132 [label=<mse = 0.0<br/>samples = 2<br/>value = 1.0>, fillcolor="#fffffe"] ;
130 -> 132 ;
133 [label=<Location &le; 6.5<br/>mse = 0.071<br/>samples = 19<br/>value = 1.418>, fillcolor="#fffefe"] ;
129 -> 133 ;
134 [label=<Location &le; 4.5<br/>mse = 0.076<br/>samples = 12<br/>value = 1.518>, fillcolor="#fffefe"] ;
133 -> 134 ;
135 [label=<Kilometers_Driven &le; 45634.0<br/>mse = 0.059<br/>samples = 8<br/>value = 1.39>, fillcolor="#fffefe"] ;
134 -> 135 ;
136 [label=<mse = 0.0<br/>samples = 1<br/>value = 1.88>, fillcolor="#fffefd"] ;
135 -> 136 ;
137 [label=<Owner_Type &le; 1.0<br/>mse = 0.028<br/>samples = 7<br/>value = 1.32>, fillcolor="#fffefe"] ;
135 -> 137 ;
138 [label=<Kilometers_Driven &le; 66500.0<br/>mse = 0.002<br/>samples = 2<br/>value = 1.545>, fillcolor="#fffefe"] ;
137 -> 138 ;
139 [label=<mse = 0.0<br/>samples = 1<br/>value = 1.59>, fillcolor="#fffefe"] ;
138 -> 139 ;
140 [label=<mse = 0.0<br/>samples = 1<br/>value = 1.5>, fillcolor="#fffefe"] ;
138 -> 140 ;
141 [label=<Kilometers_Driven &le; 59000.0<br/>mse = 0.01<br/>samples = 5<br/>value = 1.23>, fillcolor="#fffefe"] ;
137 -> 141 ;
142 [label=<mse = 0.0<br/>samples = 1<br/>value = 1.4>, fillcolor="#fffefe"] ;
141 -> 142 ;
143 [label=<Mileage &le; 18.85<br/>mse = 0.003<br/>samples = 4<br/>value = 1.188>, fillcolor="#fffefe"] ;
141 -> 143 ;
144 [label=<mse = 0.0<br/>samples = 1<br/>value = 1.1>, fillcolor="#fffefe"] ;
143 -> 144 ;
145 [label=<Kilometers_Driven &le; 81000.0<br/>mse = 0.001<br/>samples = 3<br/>value = 1.217>, fillcolor="#fffefe"] ;
143 -> 145 ;
146 [label=<mse = -0.0<br/>samples = 2<br/>value = 1.2>, fillcolor="#fffefe"] ;
145 -> 146 ;
147 [label=<mse = 0.0<br/>samples = 1<br/>value = 1.25>, fillcolor="#fffefe"] ;
145 -> 147 ;
148 [label=<Fuel_Type &le; 3.5<br/>mse = 0.012<br/>samples = 4<br/>value = 1.775>, fillcolor="#fffefd"] ;
134 -> 148 ;
149 [label=<mse = 0.0<br/>samples = 1<br/>value = 1.95>, fillcolor="#fffefd"] ;
148 -> 149 ;
150 [label=<Kilometers_Driven &le; 64178.0<br/>mse = 0.002<br/>samples = 3<br/>value = 1.717>, fillcolor="#fffefd"] ;
148 -> 150 ;
151 [label=<mse = -0.0<br/>samples = 2<br/>value = 1.75>, fillcolor="#fffefd"] ;
150 -> 151 ;
152 [label=<mse = 0.0<br/>samples = 1<br/>value = 1.65>, fillcolor="#fffefd"] ;
150 -> 152 ;
153 [label=<Engine &le; 1027.0<br/>mse = 0.016<br/>samples = 7<br/>value = 1.247>, fillcolor="#fffefe"] ;
133 -> 153 ;
154 [label=<Year &le; 2007.5<br/>mse = 0.005<br/>samples = 5<br/>value = 1.178>, fillcolor="#fffefe"] ;
153 -> 154 ;
155 [label=<mse = 0.0<br/>samples = 2<br/>value = 1.25>, fillcolor="#fffefe"] ;
154 -> 155 ;
156 [label=<Location &le; 8.5<br/>mse = 0.002<br/>samples = 3<br/>value = 1.13>, fillcolor="#fffefe"] ;
154 -> 156 ;
157 [label=<Kilometers_Driven &le; 40000.0<br/>mse = 0.0<br/>samples = 2<br/>value = 1.095>, fillcolor="#fffefe"] ;
156 -> 157 ;
158 [label=<mse = 0.0<br/>samples = 1<br/>value = 1.1>, fillcolor="#fffefe"] ;
157 -> 158 ;
159 [label=<mse = -0.0<br/>samples = 1<br/>value = 1.09>, fillcolor="#fffefe"] ;
157 -> 159 ;
160 [label=<mse = -0.0<br/>samples = 1<br/>value = 1.2>, fillcolor="#fffefe"] ;
156 -> 160 ;
161 [label=<Engine &le; 1073.5<br/>mse = 0.001<br/>samples = 2<br/>value = 1.42>, fillcolor="#fffefe"] ;
153 -> 161 ;
162 [label=<mse = 0.0<br/>samples = 1<br/>value = 1.45>, fillcolor="#fffefe"] ;
161 -> 162 ;
163 [label=<mse = -0.0<br/>samples = 1<br/>value = 1.39>, fillcolor="#fffefe"] ;
161 -> 163 ;
164 [label=<Year &le; 2007.5<br/>mse = 0.227<br/>samples = 47<br/>value = 1.739>, fillcolor="#fffefd"] ;
128 -> 164 ;
165 [label=<Engine &le; 1343.5<br/>mse = 0.137<br/>samples = 27<br/>value = 1.513>, fillcolor="#fffefe"] ;
164 -> 165 ;
166 [label=<Mileage &le; 17.61<br/>mse = 0.125<br/>samples = 21<br/>value = 1.43>, fillcolor="#fffefe"] ;
165 -> 166 ;
167 [label=<Mileage &le; 14.63<br/>mse = 0.074<br/>samples = 10<br/>value = 1.253>, fillcolor="#fffefe"] ;
166 -> 167 ;
168 [label=<Location &le; 3.5<br/>mse = 0.047<br/>samples = 5<br/>value = 1.43>, fillcolor="#fffefe"] ;
167 -> 168 ;
169 [label=<mse = 0.0<br/>samples = 1<br/>value = 1.1>, fillcolor="#fffefe"] ;
168 -> 169 ;
170 [label=<Name &le; 339.5<br/>mse = 0.024<br/>samples = 4<br/>value = 1.513>, fillcolor="#fffefe"] ;
168 -> 170 ;
171 [label=<mse = 0.0<br/>samples = 1<br/>value = 1.25>, fillcolor="#fffefe"] ;
170 -> 171 ;
172 [label=<Year &le; 2006.5<br/>mse = 0.002<br/>samples = 3<br/>value = 1.6>, fillcolor="#fffefe"] ;
170 -> 172 ;
173 [label=<Owner_Type &le; 1.0<br/>mse = 0.001<br/>samples = 2<br/>value = 1.575>, fillcolor="#fffefe"] ;
172 -> 173 ;
174 [label=<mse = 0.0<br/>samples = 1<br/>value = 1.6>, fillcolor="#fffefe"] ;
173 -> 174 ;
175 [label=<mse = -0.0<br/>samples = 1<br/>value = 1.55>, fillcolor="#fffefe"] ;
173 -> 175 ;
176 [label=<mse = 0.0<br/>samples = 1<br/>value = 1.65>, fillcolor="#fffefd"] ;
172 -> 176 ;
177 [label=<Year &le; 2006.5<br/>mse = 0.038<br/>samples = 5<br/>value = 1.076>, fillcolor="#fffefe"] ;
167 -> 177 ;
178 [label=<mse = 0.0<br/>samples = 1<br/>value = 0.75>, fillcolor="#ffffff"] ;
177 -> 178 ;
179 [label=<Kilometers_Driven &le; 70000.0<br/>mse = 0.015<br/>samples = 4<br/>value = 1.158>, fillcolor="#fffefe"] ;
177 -> 179 ;
180 [label=<Mileage &le; 16.28<br/>mse = 0.003<br/>samples = 2<br/>value = 1.045>, fillcolor="#fffffe"] ;
179 -> 180 ;
181 [label=<mse = 0.0<br/>samples = 1<br/>value = 0.99>, fillcolor="#fffffe"] ;
180 -> 181 ;
182 [label=<mse = 0.0<br/>samples = 1<br/>value = 1.1>, fillcolor="#fffefe"] ;
180 -> 182 ;
183 [label=<Name &le; 678.5<br/>mse = 0.001<br/>samples = 2<br/>value = 1.27>, fillcolor="#fffefe"] ;
179 -> 183 ;
184 [label=<mse = 0.0<br/>samples = 1<br/>value = 1.3>, fillcolor="#fffefe"] ;
183 -> 184 ;
185 [label=<mse = 0.0<br/>samples = 1<br/>value = 1.24>, fillcolor="#fffefe"] ;
183 -> 185 ;
186 [label=<Kilometers_Driven &le; 80590.0<br/>mse = 0.117<br/>samples = 11<br/>value = 1.592>, fillcolor="#fffefe"] ;
166 -> 186 ;
187 [label=<Name &le; 1194.5<br/>mse = 0.066<br/>samples = 8<br/>value = 1.738>, fillcolor="#fffefd"] ;
186 -> 187 ;
188 [label=<Power &le; 64.6<br/>mse = 0.005<br/>samples = 3<br/>value = 1.95>, fillcolor="#fffefd"] ;
187 -> 188 ;
189 [label=<mse = 0.0<br/>samples = 1<br/>value = 1.85>, fillcolor="#fffefd"] ;
188 -> 189 ;
190 [label=<mse = 0.0<br/>samples = 2<br/>value = 2.0>, fillcolor="#fffefd"] ;
188 -> 190 ;
191 [label=<Location &le; 8.0<br/>mse = 0.059<br/>samples = 5<br/>value = 1.61>, fillcolor="#fffefe"] ;
187 -> 191 ;
192 [label=<Name &le; 1199.5<br/>mse = 0.027<br/>samples = 4<br/>value = 1.513>, fillcolor="#fffefe"] ;
191 -> 192 ;
193 [label=<mse = 0.0<br/>samples = 1<br/>value = 1.25>, fillcolor="#fffefe"] ;
192 -> 193 ;
194 [label=<Location &le; 3.5<br/>mse = 0.005<br/>samples = 3<br/>value = 1.6>, fillcolor="#fffefe"] ;
192 -> 194 ;
195 [label=<mse = 0.0<br/>samples = 2<br/>value = 1.65>, fillcolor="#fffefd"] ;
194 -> 195 ;
196 [label=<mse = 0.0<br/>samples = 1<br/>value = 1.5>, fillcolor="#fffefe"] ;
194 -> 196 ;
197 [label=<mse = 0.0<br/>samples = 1<br/>value = 2.0>, fillcolor="#fffefd"] ;
191 -> 197 ;
198 [label=<Name &le; 1194.5<br/>mse = 0.046<br/>samples = 3<br/>value = 1.203>, fillcolor="#fffefe"] ;
186 -> 198 ;
199 [label=<Location &le; 5.0<br/>mse = 0.003<br/>samples = 2<br/>value = 1.055>, fillcolor="#fffffe"] ;
198 -> 199 ;
200 [label=<mse = 0.0<br/>samples = 1<br/>value = 1.0>, fillcolor="#fffffe"] ;
199 -> 200 ;
201 [label=<mse = -0.0<br/>samples = 1<br/>value = 1.11>, fillcolor="#fffefe"] ;
199 -> 201 ;
202 [label=<mse = 0.0<br/>samples = 1<br/>value = 1.5>, fillcolor="#fffefe"] ;
198 -> 202 ;
203 [label=<Owner_Type &le; 2.5<br/>mse = 0.073<br/>samples = 6<br/>value = 1.8>, fillcolor="#fffefd"] ;
165 -> 203 ;
204 [label=<Owner_Type &le; 1.0<br/>mse = 0.004<br/>samples = 3<br/>value = 2.067>, fillcolor="#fffefd"] ;
203 -> 204 ;
205 [label=<mse = 0.0<br/>samples = 1<br/>value = 2.15>, fillcolor="#fffefd"] ;
204 -> 205 ;
206 [label=<Engine &le; 1393.5<br/>mse = 0.001<br/>samples = 2<br/>value = 2.025>, fillcolor="#fffefd"] ;
204 -> 206 ;
207 [label=<mse = 0.0<br/>samples = 1<br/>value = 2.0>, fillcolor="#fffefd"] ;
206 -> 207 ;
208 [label=<mse = 0.0<br/>samples = 1<br/>value = 2.05>, fillcolor="#fffefd"] ;
206 -> 208 ;
209 [label=<Kilometers_Driven &le; 107163.5<br/>mse = 0.001<br/>samples = 3<br/>value = 1.533>, fillcolor="#fffefe"] ;
203 -> 209 ;
210 [label=<mse = 0.0<br/>samples = 2<br/>value = 1.55>, fillcolor="#fffefe"] ;
209 -> 210 ;
211 [label=<mse = 0.0<br/>samples = 1<br/>value = 1.5>, fillcolor="#fffefe"] ;
209 -> 211 ;
212 [label=<Name &le; 1216.0<br/>mse = 0.185<br/>samples = 20<br/>value = 2.044>, fillcolor="#fffefd"] ;
164 -> 212 ;
213 [label=<Fuel_Type &le; 2.5<br/>mse = 0.165<br/>samples = 17<br/>value = 2.132>, fillcolor="#fffefd"] ;
212 -> 213 ;
214 [label=<Kilometers_Driven &le; 76500.0<br/>mse = 0.109<br/>samples = 4<br/>value = 2.6>, fillcolor="#fffdfc"] ;
213 -> 214 ;
215 [label=<mse = 0.0<br/>samples = 1<br/>value = 3.0>, fillcolor="#fffdfc"] ;
214 -> 215 ;
216 [label=<Name &le; 1136.0<br/>mse = 0.074<br/>samples = 3<br/>value = 2.467>, fillcolor="#fffdfc"] ;
214 -> 216 ;
217 [label=<Engine &le; 1323.5<br/>mse = 0.001<br/>samples = 2<br/>value = 2.275>, fillcolor="#fffefd"] ;
216 -> 217 ;
218 [label=<mse = 0.0<br/>samples = 1<br/>value = 2.3>, fillcolor="#fffefd"] ;
217 -> 218 ;
219 [label=<mse = 0.0<br/>samples = 1<br/>value = 2.25>, fillcolor="#fffefd"] ;
217 -> 219 ;
220 [label=<mse = 0.0<br/>samples = 1<br/>value = 2.85>, fillcolor="#fffdfc"] ;
216 -> 220 ;
221 [label=<Power &le; 67.55<br/>mse = 0.094<br/>samples = 13<br/>value = 1.988>, fillcolor="#fffefd"] ;
213 -> 221 ;
222 [label=<Location &le; 2.5<br/>mse = 0.089<br/>samples = 5<br/>value = 2.248>, fillcolor="#fffefd"] ;
221 -> 222 ;
223 [label=<mse = 0.0<br/>samples = 1<br/>value = 1.75>, fillcolor="#fffefd"] ;
222 -> 223 ;
224 [label=<Owner_Type &le; 1.0<br/>mse = 0.034<br/>samples = 4<br/>value = 2.372>, fillcolor="#fffdfd"] ;
222 -> 224 ;
225 [label=<Kilometers_Driven &le; 81786.5<br/>mse = 0.001<br/>samples = 3<br/>value = 2.267>, fillcolor="#fffefd"] ;
224 -> 225 ;
226 [label=<mse = 0.0<br/>samples = 2<br/>value = 2.25>, fillcolor="#fffefd"] ;
225 -> 226 ;
227 [label=<mse = 0.0<br/>samples = 1<br/>value = 2.3>, fillcolor="#fffefd"] ;
225 -> 227 ;
228 [label=<mse = 0.0<br/>samples = 1<br/>value = 2.69>, fillcolor="#fffdfc"] ;
224 -> 228 ;
229 [label=<Engine &le; 1343.5<br/>mse = 0.029<br/>samples = 8<br/>value = 1.825>, fillcolor="#fffefd"] ;
221 -> 229 ;
230 [label=<Location &le; 4.5<br/>mse = 0.014<br/>samples = 7<br/>value = 1.873>, fillcolor="#fffefd"] ;
229 -> 230 ;
231 [label=<Name &le; 515.5<br/>mse = 0.0<br/>samples = 3<br/>value = 1.987>, fillcolor="#fffefd"] ;
230 -> 231 ;
232 [label=<mse = 0.0<br/>samples = 1<br/>value = 1.97>, fillcolor="#fffefd"] ;
231 -> 232 ;
233 [label=<Kilometers_Driven &le; 72722.5<br/>mse = 0.0<br/>samples = 2<br/>value = 1.995>, fillcolor="#fffefd"] ;
231 -> 233 ;
234 [label=<mse = 0.0<br/>samples = 1<br/>value = 1.99>, fillcolor="#fffefd"] ;
233 -> 234 ;
235 [label=<mse = 0.0<br/>samples = 1<br/>value = 2.0>, fillcolor="#fffefd"] ;
233 -> 235 ;
236 [label=<Kilometers_Driven &le; 64041.0<br/>mse = 0.008<br/>samples = 4<br/>value = 1.787>, fillcolor="#fffefd"] ;
230 -> 236 ;
237 [label=<mse = 0.0<br/>samples = 1<br/>value = 1.65>, fillcolor="#fffefd"] ;
236 -> 237 ;
238 [label=<Name &le; 692.5<br/>mse = 0.002<br/>samples = 3<br/>value = 1.833>, fillcolor="#fffefd"] ;
236 -> 238 ;
239 [label=<mse = 0.0<br/>samples = 2<br/>value = 1.8>, fillcolor="#fffefd"] ;
238 -> 239 ;
240 [label=<mse = -0.0<br/>samples = 1<br/>value = 1.9>, fillcolor="#fffefd"] ;
238 -> 240 ;
241 [label=<mse = -0.0<br/>samples = 1<br/>value = 1.49>, fillcolor="#fffefe"] ;
229 -> 241 ;
242 [label=<Kilometers_Driven &le; 51748.0<br/>mse = 0.012<br/>samples = 3<br/>value = 1.55>, fillcolor="#fffefe"] ;
212 -> 242 ;
243 [label=<mse = 0.0<br/>samples = 1<br/>value = 1.4>, fillcolor="#fffefe"] ;
242 -> 243 ;
244 [label=<Fuel_Type &le; 2.5<br/>mse = 0.001<br/>samples = 2<br/>value = 1.625>, fillcolor="#fffefe"] ;
242 -> 244 ;
245 [label=<mse = 0.0<br/>samples = 1<br/>value = 1.6>, fillcolor="#fffefe"] ;
244 -> 245 ;
246 [label=<mse = 0.0<br/>samples = 1<br/>value = 1.65>, fillcolor="#fffefd"] ;
244 -> 246 ;
247 [label=<Mileage &le; 16.9<br/>mse = 0.019<br/>samples = 10<br/>value = 0.971>, fillcolor="#fffffe"] ;
127 -> 247 ;
248 [label=<Name &le; 1573.0<br/>mse = 0.007<br/>samples = 5<br/>value = 0.862>, fillcolor="#fffffe"] ;
247 -> 248 ;
249 [label=<Location &le; 9.5<br/>mse = 0.001<br/>samples = 4<br/>value = 0.902>, fillcolor="#fffffe"] ;
248 -> 249 ;
250 [label=<Mileage &le; 16.45<br/>mse = 0.0<br/>samples = 3<br/>value = 0.887>, fillcolor="#fffffe"] ;
249 -> 250 ;
251 [label=<mse = -0.0<br/>samples = 2<br/>value = 0.9>, fillcolor="#fffffe"] ;
250 -> 251 ;
252 [label=<mse = 0.0<br/>samples = 1<br/>value = 0.86>, fillcolor="#fffffe"] ;
250 -> 252 ;
253 [label=<mse = 0.0<br/>samples = 1<br/>value = 0.95>, fillcolor="#fffffe"] ;
249 -> 253 ;
254 [label=<mse = -0.0<br/>samples = 1<br/>value = 0.7>, fillcolor="#ffffff"] ;
248 -> 254 ;
255 [label=<Mileage &le; 17.6<br/>mse = 0.007<br/>samples = 5<br/>value = 1.08>, fillcolor="#fffefe"] ;
247 -> 255 ;
256 [label=<mse = 0.0<br/>samples = 2<br/>value = 1.0>, fillcolor="#fffffe"] ;
255 -> 256 ;
257 [label=<Owner_Type &le; 1.0<br/>mse = 0.004<br/>samples = 3<br/>value = 1.133>, fillcolor="#fffefe"] ;
255 -> 257 ;
258 [label=<Kilometers_Driven &le; 141500.0<br/>mse = 0.001<br/>samples = 2<br/>value = 1.175>, fillcolor="#fffefe"] ;
257 -> 258 ;
259 [label=<mse = 0.0<br/>samples = 1<br/>value = 1.2>, fillcolor="#fffefe"] ;
258 -> 259 ;
260 [label=<mse = 0.0<br/>samples = 1<br/>value = 1.15>, fillcolor="#fffefe"] ;
258 -> 260 ;
261 [label=<mse = -0.0<br/>samples = 1<br/>value = 1.05>, fillcolor="#fffffe"] ;
257 -> 261 ;
262 [label=<Location &le; 5.5<br/>mse = 0.466<br/>samples = 78<br/>value = 2.04>, fillcolor="#fffefd"] ;
126 -> 262 ;
263 [label=<Name &le; 1093.5<br/>mse = 0.399<br/>samples = 42<br/>value = 2.345>, fillcolor="#fffdfd"] ;
262 -> 263 ;
264 [label=<Power &le; 78.45<br/>mse = 0.236<br/>samples = 34<br/>value = 2.155>, fillcolor="#fffefd"] ;
263 -> 264 ;
265 [label=<Kilometers_Driven &le; 68500.0<br/>mse = 0.017<br/>samples = 2<br/>value = 3.12>, fillcolor="#fffdfc"] ;
264 -> 265 ;
266 [label=<mse = 0.0<br/>samples = 1<br/>value = 2.99>, fillcolor="#fffdfc"] ;
265 -> 266 ;
267 [label=<mse = 0.0<br/>samples = 1<br/>value = 3.25>, fillcolor="#fffdfc"] ;
265 -> 267 ;
268 [label=<Power &le; 115.468<br/>mse = 0.188<br/>samples = 32<br/>value = 2.094>, fillcolor="#fffefd"] ;
264 -> 268 ;
269 [label=<Mileage &le; 14.195<br/>mse = 0.154<br/>samples = 28<br/>value = 2.01>, fillcolor="#fffefd"] ;
268 -> 269 ;
270 [label=<Name &le; 503.5<br/>mse = 0.024<br/>samples = 3<br/>value = 2.517>, fillcolor="#fffdfc"] ;
269 -> 270 ;
271 [label=<mse = 0.0<br/>samples = 1<br/>value = 2.3>, fillcolor="#fffefd"] ;
270 -> 271 ;
272 [label=<Kilometers_Driven &le; 46500.0<br/>mse = 0.001<br/>samples = 2<br/>value = 2.625>, fillcolor="#fffdfc"] ;
270 -> 272 ;
273 [label=<mse = 0.0<br/>samples = 1<br/>value = 2.6>, fillcolor="#fffdfc"] ;
272 -> 273 ;
274 [label=<mse = 0.0<br/>samples = 1<br/>value = 2.65>, fillcolor="#fffdfc"] ;
272 -> 274 ;
275 [label=<Location &le; 2.5<br/>mse = 0.135<br/>samples = 25<br/>value = 1.949>, fillcolor="#fffefd"] ;
269 -> 275 ;
276 [label=<Power &le; 80.95<br/>mse = 0.091<br/>samples = 12<br/>value = 1.756>, fillcolor="#fffefd"] ;
275 -> 276 ;
277 [label=<mse = 0.0<br/>samples = 1<br/>value = 2.5>, fillcolor="#fffdfc"] ;
276 -> 277 ;
278 [label=<Kilometers_Driven &le; 90936.5<br/>mse = 0.044<br/>samples = 11<br/>value = 1.688>, fillcolor="#fffefd"] ;
276 -> 278 ;
279 [label=<Kilometers_Driven &le; 53500.0<br/>mse = 0.026<br/>samples = 7<br/>value = 1.567>, fillcolor="#fffefe"] ;
278 -> 279 ;
280 [label=<Kilometers_Driven &le; 37220.5<br/>mse = 0.017<br/>samples = 4<br/>value = 1.675>, fillcolor="#fffefd"] ;
279 -> 280 ;
281 [label=<mse = 0.0<br/>samples = 1<br/>value = 1.45>, fillcolor="#fffefe"] ;
280 -> 281 ;
282 [label=<mse = 0.0<br/>samples = 3<br/>value = 1.75>, fillcolor="#fffefd"] ;
280 -> 282 ;
283 [label=<Seats &le; 5.141<br/>mse = 0.003<br/>samples = 3<br/>value = 1.423>, fillcolor="#fffefe"] ;
279 -> 283 ;
284 [label=<Kilometers_Driven &le; 85036.0<br/>mse = 0.0<br/>samples = 2<br/>value = 1.385>, fillcolor="#fffefe"] ;
283 -> 284 ;
285 [label=<mse = 0.0<br/>samples = 1<br/>value = 1.4>, fillcolor="#fffefe"] ;
284 -> 285 ;
286 [label=<mse = 0.0<br/>samples = 1<br/>value = 1.37>, fillcolor="#fffefe"] ;
284 -> 286 ;
287 [label=<mse = 0.0<br/>samples = 1<br/>value = 1.5>, fillcolor="#fffefe"] ;
283 -> 287 ;
288 [label=<Name &le; 648.5<br/>mse = 0.004<br/>samples = 4<br/>value = 1.9>, fillcolor="#fffefd"] ;
278 -> 288 ;
289 [label=<Name &le; 645.5<br/>mse = 0.001<br/>samples = 3<br/>value = 1.867>, fillcolor="#fffefd"] ;
288 -> 289 ;
290 [label=<mse = 0.0<br/>samples = 2<br/>value = 1.85>, fillcolor="#fffefd"] ;
289 -> 290 ;
291 [label=<mse = -0.0<br/>samples = 1<br/>value = 1.9>, fillcolor="#fffefd"] ;
289 -> 291 ;
292 [label=<mse = 0.0<br/>samples = 1<br/>value = 2.0>, fillcolor="#fffefd"] ;
288 -> 292 ;
293 [label=<Kilometers_Driven &le; 147638.5<br/>mse = 0.11<br/>samples = 13<br/>value = 2.127>, fillcolor="#fffefd"] ;
275 -> 293 ;
294 [label=<Kilometers_Driven &le; 97500.0<br/>mse = 0.051<br/>samples = 12<br/>value = 2.054>, fillcolor="#fffefd"] ;
293 -> 294 ;
295 [label=<Kilometers_Driven &le; 62553.5<br/>mse = 0.03<br/>samples = 10<br/>value = 2.125>, fillcolor="#fffefd"] ;
294 -> 295 ;
296 [label=<Mileage &le; 14.895<br/>mse = 0.011<br/>samples = 4<br/>value = 1.95>, fillcolor="#fffefd"] ;
295 -> 296 ;
297 [label=<mse = 0.0<br/>samples = 1<br/>value = 1.8>, fillcolor="#fffefd"] ;
296 -> 297 ;
298 [label=<Name &le; 604.5<br/>mse = 0.005<br/>samples = 3<br/>value = 2.0>, fillcolor="#fffefd"] ;
296 -> 298 ;
299 [label=<mse = 0.0<br/>samples = 2<br/>value = 1.95>, fillcolor="#fffefd"] ;
298 -> 299 ;
300 [label=<mse = 0.0<br/>samples = 1<br/>value = 2.1>, fillcolor="#fffefd"] ;
298 -> 300 ;
301 [label=<Transmission &le; 0.5<br/>mse = 0.009<br/>samples = 6<br/>value = 2.242>, fillcolor="#fffefd"] ;
295 -> 301 ;
302 [label=<Name &le; 592.5<br/>mse = 0.003<br/>samples = 2<br/>value = 2.35>, fillcolor="#fffdfd"] ;
301 -> 302 ;
303 [label=<mse = 0.0<br/>samples = 1<br/>value = 2.3>, fillcolor="#fffefd"] ;
302 -> 303 ;
304 [label=<mse = 0.0<br/>samples = 1<br/>value = 2.4>, fillcolor="#fffdfd"] ;
302 -> 304 ;
305 [label=<Mileage &le; 16.9<br/>mse = 0.003<br/>samples = 4<br/>value = 2.188>, fillcolor="#fffefd"] ;
301 -> 305 ;
306 [label=<Power &le; 96.5<br/>mse = 0.001<br/>samples = 2<br/>value = 2.225>, fillcolor="#fffefd"] ;
305 -> 306 ;
307 [label=<mse = 0.0<br/>samples = 1<br/>value = 2.2>, fillcolor="#fffefd"] ;
306 -> 307 ;
308 [label=<mse = -0.0<br/>samples = 1<br/>value = 2.25>, fillcolor="#fffefd"] ;
306 -> 308 ;
309 [label=<Mileage &le; 17.674<br/>mse = 0.003<br/>samples = 2<br/>value = 2.15>, fillcolor="#fffefd"] ;
305 -> 309 ;
310 [label=<mse = 0.0<br/>samples = 1<br/>value = 2.1>, fillcolor="#fffefd"] ;
309 -> 310 ;
311 [label=<mse = -0.0<br/>samples = 1<br/>value = 2.2>, fillcolor="#fffefd"] ;
309 -> 311 ;
312 [label=<Kilometers_Driven &le; 122138.5<br/>mse = 0.003<br/>samples = 2<br/>value = 1.7>, fillcolor="#fffefd"] ;
294 -> 312 ;
313 [label=<mse = 0.0<br/>samples = 1<br/>value = 1.75>, fillcolor="#fffefd"] ;
312 -> 313 ;
314 [label=<mse = 0.0<br/>samples = 1<br/>value = 1.65>, fillcolor="#fffefd"] ;
312 -> 314 ;
315 [label=<mse = 0.0<br/>samples = 1<br/>value = 3.0>, fillcolor="#fffdfc"] ;
293 -> 315 ;
316 [label=<Name &le; 649.5<br/>mse = 0.023<br/>samples = 4<br/>value = 2.688>, fillcolor="#fffdfc"] ;
268 -> 316 ;
317 [label=<Name &le; 534.0<br/>mse = 0.011<br/>samples = 3<br/>value = 2.617>, fillcolor="#fffdfc"] ;
316 -> 317 ;
318 [label=<mse = 0.0<br/>samples = 1<br/>value = 2.75>, fillcolor="#fffdfc"] ;
317 -> 318 ;
319 [label=<Kilometers_Driven &le; 119926.5<br/>mse = 0.003<br/>samples = 2<br/>value = 2.55>, fillcolor="#fffdfc"] ;
317 -> 319 ;
320 [label=<mse = 0.0<br/>samples = 1<br/>value = 2.5>, fillcolor="#fffdfc"] ;
319 -> 320 ;
321 [label=<mse = 0.0<br/>samples = 1<br/>value = 2.6>, fillcolor="#fffdfc"] ;
319 -> 321 ;
322 [label=<mse = -0.0<br/>samples = 1<br/>value = 2.9>, fillcolor="#fffdfc"] ;
316 -> 322 ;
323 [label=<Location &le; 2.5<br/>mse = 0.284<br/>samples = 8<br/>value = 3.152>, fillcolor="#fffdfc"] ;
263 -> 323 ;
324 [label=<Fuel_Type &le; 2.5<br/>mse = 0.098<br/>samples = 6<br/>value = 2.91>, fillcolor="#fffdfc"] ;
323 -> 324 ;
325 [label=<Power &le; 93.968<br/>mse = 0.029<br/>samples = 3<br/>value = 3.167>, fillcolor="#fffdfc"] ;
324 -> 325 ;
326 [label=<Location &le; 1.5<br/>mse = 0.003<br/>samples = 2<br/>value = 3.05>, fillcolor="#fffdfc"] ;
325 -> 326 ;
327 [label=<mse = 0.0<br/>samples = 1<br/>value = 3.0>, fillcolor="#fffdfc"] ;
326 -> 327 ;
328 [label=<mse = 0.0<br/>samples = 1<br/>value = 3.1>, fillcolor="#fffdfc"] ;
326 -> 328 ;
329 [label=<mse = 0.0<br/>samples = 1<br/>value = 3.4>, fillcolor="#fffdfb"] ;
325 -> 329 ;
330 [label=<Location &le; 1.5<br/>mse = 0.035<br/>samples = 3<br/>value = 2.653>, fillcolor="#fffdfc"] ;
324 -> 330 ;
331 [label=<Mileage &le; 18.25<br/>mse = 0.005<br/>samples = 2<br/>value = 2.78>, fillcolor="#fffdfc"] ;
330 -> 331 ;
332 [label=<mse = 0.0<br/>samples = 1<br/>value = 2.71>, fillcolor="#fffdfc"] ;
331 -> 332 ;
333 [label=<mse = -0.0<br/>samples = 1<br/>value = 2.85>, fillcolor="#fffdfc"] ;
331 -> 333 ;
334 [label=<mse = 0.0<br/>samples = 1<br/>value = 2.4>, fillcolor="#fffdfd"] ;
330 -> 334 ;
335 [label=<Fuel_Type &le; 2.5<br/>mse = 0.137<br/>samples = 2<br/>value = 3.88>, fillcolor="#fefcfb"] ;
323 -> 335 ;
336 [label=<mse = 0.0<br/>samples = 1<br/>value = 4.25>, fillcolor="#fefcfa"] ;
335 -> 336 ;
337 [label=<mse = -0.0<br/>samples = 1<br/>value = 3.51>, fillcolor="#fefdfb"] ;
335 -> 337 ;
338 [label=<Year &le; 2007.5<br/>mse = 0.309<br/>samples = 36<br/>value = 1.684>, fillcolor="#fffefd"] ;
262 -> 338 ;
339 [label=<Location &le; 7.5<br/>mse = 0.214<br/>samples = 23<br/>value = 1.457>, fillcolor="#fffefe"] ;
338 -> 339 ;
340 [label=<Name &le; 301.0<br/>mse = 0.128<br/>samples = 5<br/>value = 2.012>, fillcolor="#fffefd"] ;
339 -> 340 ;
341 [label=<mse = 0.0<br/>samples = 1<br/>value = 1.35>, fillcolor="#fffefe"] ;
340 -> 341 ;
342 [label=<Kilometers_Driven &le; 99878.0<br/>mse = 0.023<br/>samples = 4<br/>value = 2.177>, fillcolor="#fffefd"] ;
340 -> 342 ;
343 [label=<Power &le; 106.468<br/>mse = 0.008<br/>samples = 3<br/>value = 2.103>, fillcolor="#fffefd"] ;
342 -> 343 ;
344 [label=<Location &le; 6.5<br/>mse = 0.002<br/>samples = 2<br/>value = 2.16>, fillcolor="#fffefd"] ;
343 -> 344 ;
345 [label=<mse = 0.0<br/>samples = 1<br/>value = 2.11>, fillcolor="#fffefd"] ;
344 -> 345 ;
346 [label=<mse = -0.0<br/>samples = 1<br/>value = 2.21>, fillcolor="#fffefd"] ;
344 -> 346 ;
347 [label=<mse = -0.0<br/>samples = 1<br/>value = 1.99>, fillcolor="#fffefd"] ;
343 -> 347 ;
348 [label=<mse = -0.0<br/>samples = 1<br/>value = 2.4>, fillcolor="#fffdfd"] ;
342 -> 348 ;
349 [label=<Power &le; 80.9<br/>mse = 0.129<br/>samples = 18<br/>value = 1.303>, fillcolor="#fffefe"] ;
339 -> 349 ;
350 [label=<Mileage &le; 19.03<br/>mse = 0.043<br/>samples = 5<br/>value = 1.678>, fillcolor="#fffefd"] ;
349 -> 350 ;
351 [label=<Name &le; 432.0<br/>mse = 0.022<br/>samples = 4<br/>value = 1.598>, fillcolor="#fffefe"] ;
350 -> 351 ;
352 [label=<Owner_Type &le; 1.0<br/>mse = 0.031<br/>samples = 2<br/>value = 1.675>, fillcolor="#fffefd"] ;
351 -> 352 ;
353 [label=<mse = 0.0<br/>samples = 1<br/>value = 1.5>, fillcolor="#fffefe"] ;
352 -> 353 ;
354 [label=<mse = 0.0<br/>samples = 1<br/>value = 1.85>, fillcolor="#fffefd"] ;
352 -> 354 ;
355 [label=<Year &le; 2006.5<br/>mse = 0.001<br/>samples = 2<br/>value = 1.52>, fillcolor="#fffefe"] ;
351 -> 355 ;
356 [label=<mse = 0.0<br/>samples = 1<br/>value = 1.55>, fillcolor="#fffefe"] ;
355 -> 356 ;
357 [label=<mse = 0.0<br/>samples = 1<br/>value = 1.49>, fillcolor="#fffefe"] ;
355 -> 357 ;
358 [label=<mse = -0.0<br/>samples = 1<br/>value = 2.0>, fillcolor="#fffefd"] ;
350 -> 358 ;
359 [label=<Mileage &le; 14.05<br/>mse = 0.086<br/>samples = 13<br/>value = 1.158>, fillcolor="#fffefe"] ;
349 -> 359 ;
360 [label=<mse = 0.0<br/>samples = 1<br/>value = 1.95>, fillcolor="#fffefd"] ;
359 -> 360 ;
361 [label=<Kilometers_Driven &le; 46953.5<br/>mse = 0.037<br/>samples = 12<br/>value = 1.092>, fillcolor="#fffefe"] ;
359 -> 361 ;
362 [label=<Name &le; 381.5<br/>mse = 0.013<br/>samples = 3<br/>value = 0.91>, fillcolor="#fffffe"] ;
361 -> 362 ;
363 [label=<mse = 0.0<br/>samples = 1<br/>value = 0.75>, fillcolor="#ffffff"] ;
362 -> 363 ;
364 [label=<mse = 0.0<br/>samples = 2<br/>value = 0.99>, fillcolor="#fffffe"] ;
362 -> 364 ;
365 [label=<Location &le; 9.5<br/>mse = 0.03<br/>samples = 9<br/>value = 1.153>, fillcolor="#fffefe"] ;
361 -> 365 ;
366 [label=<mse = 0.0<br/>samples = 1<br/>value = 1.55>, fillcolor="#fffefe"] ;
365 -> 366 ;
367 [label=<Kilometers_Driven &le; 150500.0<br/>mse = 0.012<br/>samples = 8<br/>value = 1.104>, fillcolor="#fffefe"] ;
365 -> 367 ;
368 [label=<Kilometers_Driven &le; 110500.0<br/>mse = 0.003<br/>samples = 7<br/>value = 1.14>, fillcolor="#fffefe"] ;
367 -> 368 ;
369 [label=<Power &le; 107.468<br/>mse = 0.002<br/>samples = 5<br/>value = 1.166>, fillcolor="#fffefe"] ;
368 -> 369 ;
370 [label=<mse = 0.0<br/>samples = 2<br/>value = 1.2>, fillcolor="#fffefe"] ;
369 -> 370 ;
371 [label=<Kilometers_Driven &le; 58600.0<br/>mse = 0.002<br/>samples = 3<br/>value = 1.143>, fillcolor="#fffefe"] ;
369 -> 371 ;
372 [label=<mse = 0.0<br/>samples = 1<br/>value = 1.2>, fillcolor="#fffefe"] ;
371 -> 372 ;
373 [label=<Name &le; 607.5<br/>mse = 0.0<br/>samples = 2<br/>value = 1.115>, fillcolor="#fffefe"] ;
371 -> 373 ;
374 [label=<mse = 0.0<br/>samples = 1<br/>value = 1.11>, fillcolor="#fffefe"] ;
373 -> 374 ;
375 [label=<mse = -0.0<br/>samples = 1<br/>value = 1.12>, fillcolor="#fffefe"] ;
373 -> 375 ;
376 [label=<Name &le; 770.0<br/>mse = 0.001<br/>samples = 2<br/>value = 1.075>, fillcolor="#fffefe"] ;
368 -> 376 ;
377 [label=<mse = 0.0<br/>samples = 1<br/>value = 1.1>, fillcolor="#fffefe"] ;
376 -> 377 ;
378 [label=<mse = -0.0<br/>samples = 1<br/>value = 1.05>, fillcolor="#fffffe"] ;
376 -> 378 ;
379 [label=<mse = 0.0<br/>samples = 1<br/>value = 0.85>, fillcolor="#fffffe"] ;
367 -> 379 ;
380 [label=<Kilometers_Driven &le; 54115.0<br/>mse = 0.225<br/>samples = 13<br/>value = 2.087>, fillcolor="#fffefd"] ;
338 -> 380 ;
381 [label=<Power &le; 80.4<br/>mse = 0.202<br/>samples = 3<br/>value = 1.667>, fillcolor="#fffefd"] ;
380 -> 381 ;
382 [label=<mse = 0.0<br/>samples = 1<br/>value = 2.3>, fillcolor="#fffefd"] ;
381 -> 382 ;
383 [label=<Mileage &le; 15.175<br/>mse = 0.002<br/>samples = 2<br/>value = 1.35>, fillcolor="#fffefe"] ;
381 -> 383 ;
384 [label=<mse = 0.0<br/>samples = 1<br/>value = 1.3>, fillcolor="#fffefe"] ;
383 -> 384 ;
385 [label=<mse = -0.0<br/>samples = 1<br/>value = 1.4>, fillcolor="#fffefe"] ;
383 -> 385 ;
386 [label=<Power &le; 103.94<br/>mse = 0.162<br/>samples = 10<br/>value = 2.213>, fillcolor="#fffefd"] ;
380 -> 386 ;
387 [label=<Mileage &le; 19.05<br/>mse = 0.059<br/>samples = 6<br/>value = 2.475>, fillcolor="#fffdfc"] ;
386 -> 387 ;
388 [label=<Name &le; 1143.0<br/>mse = 0.045<br/>samples = 5<br/>value = 2.54>, fillcolor="#fffdfc"] ;
387 -> 388 ;
389 [label=<Owner_Type &le; 1.0<br/>mse = 0.027<br/>samples = 4<br/>value = 2.462>, fillcolor="#fffdfc"] ;
388 -> 389 ;
390 [label=<Kilometers_Driven &le; 77000.0<br/>mse = 0.01<br/>samples = 2<br/>value = 2.6>, fillcolor="#fffdfc"] ;
389 -> 390 ;
391 [label=<mse = 0.0<br/>samples = 1<br/>value = 2.7>, fillcolor="#fffdfc"] ;
390 -> 391 ;
392 [label=<mse = 0.0<br/>samples = 1<br/>value = 2.5>, fillcolor="#fffdfc"] ;
390 -> 392 ;
393 [label=<Kilometers_Driven &le; 87615.0<br/>mse = 0.006<br/>samples = 2<br/>value = 2.325>, fillcolor="#fffefd"] ;
389 -> 393 ;
394 [label=<mse = 0.0<br/>samples = 1<br/>value = 2.4>, fillcolor="#fffdfd"] ;
393 -> 394 ;
395 [label=<mse = -0.0<br/>samples = 1<br/>value = 2.25>, fillcolor="#fffefd"] ;
393 -> 395 ;
396 [label=<mse = 0.0<br/>samples = 1<br/>value = 2.85>, fillcolor="#fffdfc"] ;
388 -> 396 ;
397 [label=<mse = 0.0<br/>samples = 1<br/>value = 2.15>, fillcolor="#fffefd"] ;
387 -> 397 ;
398 [label=<Kilometers_Driven &le; 140555.5<br/>mse = 0.06<br/>samples = 4<br/>value = 1.82>, fillcolor="#fffefd"] ;
386 -> 398 ;
399 [label=<Engine &le; 1242.5<br/>mse = 0.035<br/>samples = 3<br/>value = 1.927>, fillcolor="#fffefd"] ;
398 -> 399 ;
400 [label=<mse = 0.0<br/>samples = 1<br/>value = 1.67>, fillcolor="#fffefd"] ;
399 -> 400 ;
401 [label=<Power &le; 108.808<br/>mse = 0.003<br/>samples = 2<br/>value = 2.055>, fillcolor="#fffefd"] ;
399 -> 401 ;
402 [label=<mse = 0.0<br/>samples = 1<br/>value = 2.11>, fillcolor="#fffefd"] ;
401 -> 402 ;
403 [label=<mse = 0.0<br/>samples = 1<br/>value = 2.0>, fillcolor="#fffefd"] ;
401 -> 403 ;
404 [label=<mse = 0.0<br/>samples = 1<br/>value = 1.5>, fillcolor="#fffefe"] ;
398 -> 404 ;
405 [label=<Power &le; 73.375<br/>mse = 0.806<br/>samples = 452<br/>value = 2.729>, fillcolor="#fffdfc"] ;
5 -> 405 ;
406 [label=<Seats &le; 4.5<br/>mse = 0.394<br/>samples = 143<br/>value = 2.14>, fillcolor="#fffefd"] ;
405 -> 406 ;
407 [label=<Location &le; 5.5<br/>mse = 0.151<br/>samples = 7<br/>value = 0.899>, fillcolor="#fffffe"] ;
406 -> 407 ;
408 [label=<Kilometers_Driven &le; 59484.5<br/>mse = 0.022<br/>samples = 2<br/>value = 1.45>, fillcolor="#fffefe"] ;
407 -> 408 ;
409 [label=<mse = 0.0<br/>samples = 1<br/>value = 1.6>, fillcolor="#fffefe"] ;
408 -> 409 ;
410 [label=<mse = -0.0<br/>samples = 1<br/>value = 1.3>, fillcolor="#fffefe"] ;
408 -> 410 ;
411 [label=<Mileage &le; 24.95<br/>mse = 0.032<br/>samples = 5<br/>value = 0.678>, fillcolor="#ffffff"] ;
407 -> 411 ;
412 [label=<Name &le; 942.0<br/>mse = 0.004<br/>samples = 3<br/>value = 0.817>, fillcolor="#ffffff"] ;
411 -> 412 ;
413 [label=<mse = 0.0<br/>samples = 1<br/>value = 0.9>, fillcolor="#fffffe"] ;
412 -> 413 ;
414 [label=<Kilometers_Driven &le; 36050.0<br/>mse = 0.001<br/>samples = 2<br/>value = 0.775>, fillcolor="#ffffff"] ;
412 -> 414 ;
415 [label=<mse = 0.0<br/>samples = 1<br/>value = 0.8>, fillcolor="#ffffff"] ;
414 -> 415 ;
416 [label=<mse = 0.0<br/>samples = 1<br/>value = 0.75>, fillcolor="#ffffff"] ;
414 -> 416 ;
417 [label=<Location &le; 8.0<br/>mse = 0.001<br/>samples = 2<br/>value = 0.47>, fillcolor="#ffffff"] ;
411 -> 417 ;
418 [label=<mse = 0.0<br/>samples = 1<br/>value = 0.5>, fillcolor="#ffffff"] ;
417 -> 418 ;
419 [label=<mse = 0.0<br/>samples = 1<br/>value = 0.44>, fillcolor="#ffffff"] ;
417 -> 419 ;
420 [label=<Year &le; 2010.5<br/>mse = 0.323<br/>samples = 136<br/>value = 2.204>, fillcolor="#fffefd"] ;
406 -> 420 ;
421 [label=<Location &le; 5.5<br/>mse = 0.258<br/>samples = 75<br/>value = 1.995>, fillcolor="#fffefd"] ;
420 -> 421 ;
422 [label=<Owner_Type &le; 1.0<br/>mse = 0.189<br/>samples = 33<br/>value = 2.257>, fillcolor="#fffefd"] ;
421 -> 422 ;
423 [label=<Location &le; 0.5<br/>mse = 0.13<br/>samples = 22<br/>value = 2.425>, fillcolor="#fffdfd"] ;
422 -> 423 ;
424 [label=<mse = 0.0<br/>samples = 1<br/>value = 1.5>, fillcolor="#fffefe"] ;
423 -> 424 ;
425 [label=<Kilometers_Driven &le; 63822.5<br/>mse = 0.093<br/>samples = 21<br/>value = 2.47>, fillcolor="#fffdfc"] ;
423 -> 425 ;
426 [label=<Location &le; 4.0<br/>mse = 0.088<br/>samples = 6<br/>value = 2.702>, fillcolor="#fffdfc"] ;
425 -> 426 ;
427 [label=<Kilometers_Driven &le; 52052.5<br/>mse = 0.01<br/>samples = 3<br/>value = 2.97>, fillcolor="#fffdfc"] ;
426 -> 427 ;
428 [label=<mse = 0.0<br/>samples = 1<br/>value = 3.1>, fillcolor="#fffdfc"] ;
427 -> 428 ;
429 [label=<Mileage &le; 19.755<br/>mse = 0.003<br/>samples = 2<br/>value = 2.905>, fillcolor="#fffdfc"] ;
427 -> 429 ;
430 [label=<mse = 0.0<br/>samples = 1<br/>value = 2.96>, fillcolor="#fffdfc"] ;
429 -> 430 ;
431 [label=<mse = -0.0<br/>samples = 1<br/>value = 2.85>, fillcolor="#fffdfc"] ;
429 -> 431 ;
432 [label=<Power &le; 67.05<br/>mse = 0.021<br/>samples = 3<br/>value = 2.433>, fillcolor="#fffdfd"] ;
426 -> 432 ;
433 [label=<Power &le; 64.5<br/>mse = 0.006<br/>samples = 2<br/>value = 2.525>, fillcolor="#fffdfc"] ;
432 -> 433 ;
434 [label=<mse = 0.0<br/>samples = 1<br/>value = 2.45>, fillcolor="#fffdfd"] ;
433 -> 434 ;
435 [label=<mse = -0.0<br/>samples = 1<br/>value = 2.6>, fillcolor="#fffdfc"] ;
433 -> 435 ;
436 [label=<mse = 0.0<br/>samples = 1<br/>value = 2.25>, fillcolor="#fffefd"] ;
432 -> 436 ;
437 [label=<Name &le; 332.0<br/>mse = 0.065<br/>samples = 15<br/>value = 2.377>, fillcolor="#fffdfd"] ;
425 -> 437 ;
438 [label=<Name &le; 259.0<br/>mse = 0.044<br/>samples = 6<br/>value = 2.533>, fillcolor="#fffdfc"] ;
437 -> 438 ;
439 [label=<mse = 0.0<br/>samples = 1<br/>value = 2.25>, fillcolor="#fffefd"] ;
438 -> 439 ;
440 [label=<Mileage &le; 18.9<br/>mse = 0.033<br/>samples = 5<br/>value = 2.59>, fillcolor="#fffdfc"] ;
438 -> 440 ;
441 [label=<mse = 0.0<br/>samples = 2<br/>value = 2.75>, fillcolor="#fffdfc"] ;
440 -> 441 ;
442 [label=<Name &le; 328.0<br/>mse = 0.027<br/>samples = 3<br/>value = 2.483>, fillcolor="#fffdfc"] ;
440 -> 442 ;
443 [label=<mse = 0.0<br/>samples = 1<br/>value = 2.25>, fillcolor="#fffefd"] ;
442 -> 443 ;
444 [label=<mse = 0.0<br/>samples = 2<br/>value = 2.6>, fillcolor="#fffdfc"] ;
442 -> 444 ;
445 [label=<Mileage &le; 19.35<br/>mse = 0.052<br/>samples = 9<br/>value = 2.272>, fillcolor="#fffefd"] ;
437 -> 445 ;
446 [label=<Mileage &le; 13.9<br/>mse = 0.044<br/>samples = 8<br/>value = 2.312>, fillcolor="#fffefd"] ;
445 -> 446 ;
447 [label=<mse = 0.0<br/>samples = 1<br/>value = 1.99>, fillcolor="#fffefd"] ;
446 -> 447 ;
448 [label=<Location &le; 4.5<br/>mse = 0.033<br/>samples = 7<br/>value = 2.359>, fillcolor="#fffdfd"] ;
446 -> 448 ;
449 [label=<Kilometers_Driven &le; 75622.5<br/>mse = 0.031<br/>samples = 4<br/>value = 2.278>, fillcolor="#fffefd"] ;
448 -> 449 ;
450 [label=<mse = 0.0<br/>samples = 1<br/>value = 2.0>, fillcolor="#fffefd"] ;
449 -> 450 ;
451 [label=<Name &le; 706.5<br/>mse = 0.007<br/>samples = 3<br/>value = 2.37>, fillcolor="#fffdfd"] ;
449 -> 451 ;
452 [label=<mse = 0.0<br/>samples = 1<br/>value = 2.25>, fillcolor="#fffefd"] ;
451 -> 452 ;
453 [label=<Engine &le; 897.0<br/>mse = 0.0<br/>samples = 2<br/>value = 2.43>, fillcolor="#fffdfd"] ;
451 -> 453 ;
454 [label=<mse = 0.0<br/>samples = 1<br/>value = 2.41>, fillcolor="#fffdfd"] ;
453 -> 454 ;
455 [label=<mse = -0.0<br/>samples = 1<br/>value = 2.45>, fillcolor="#fffdfd"] ;
453 -> 455 ;
456 [label=<Name &le; 773.0<br/>mse = 0.016<br/>samples = 3<br/>value = 2.467>, fillcolor="#fffdfc"] ;
448 -> 456 ;
457 [label=<mse = 0.0<br/>samples = 1<br/>value = 2.3>, fillcolor="#fffefd"] ;
456 -> 457 ;
458 [label=<Name &le; 949.5<br/>mse = 0.002<br/>samples = 2<br/>value = 2.55>, fillcolor="#fffdfc"] ;
456 -> 458 ;
459 [label=<mse = 0.0<br/>samples = 1<br/>value = 2.6>, fillcolor="#fffdfc"] ;
458 -> 459 ;
460 [label=<mse = 0.0<br/>samples = 1<br/>value = 2.5>, fillcolor="#fffdfc"] ;
458 -> 460 ;
461 [label=<mse = -0.0<br/>samples = 1<br/>value = 1.95>, fillcolor="#fffefd"] ;
445 -> 461 ;
462 [label=<Engine &le; 1141.0<br/>mse = 0.137<br/>samples = 11<br/>value = 1.919>, fillcolor="#fffefd"] ;
422 -> 462 ;
463 [label=<Location &le; 3.0<br/>mse = 0.03<br/>samples = 6<br/>value = 1.625>, fillcolor="#fffefe"] ;
462 -> 463 ;
464 [label=<Kilometers_Driven &le; 71692.5<br/>mse = 0.005<br/>samples = 4<br/>value = 1.513>, fillcolor="#fffefe"] ;
463 -> 464 ;
465 [label=<mse = 0.0<br/>samples = 1<br/>value = 1.4>, fillcolor="#fffefe"] ;
464 -> 465 ;
466 [label=<Mileage &le; 18.81<br/>mse = 0.002<br/>samples = 3<br/>value = 1.55>, fillcolor="#fffefe"] ;
464 -> 466 ;
467 [label=<Year &le; 2009.5<br/>mse = 0.001<br/>samples = 2<br/>value = 1.525>, fillcolor="#fffefe"] ;
466 -> 467 ;
468 [label=<mse = 0.0<br/>samples = 1<br/>value = 1.55>, fillcolor="#fffefe"] ;
467 -> 468 ;
469 [label=<mse = 0.0<br/>samples = 1<br/>value = 1.5>, fillcolor="#fffefe"] ;
467 -> 469 ;
470 [label=<mse = 0.0<br/>samples = 1<br/>value = 1.6>, fillcolor="#fffefe"] ;
466 -> 470 ;
471 [label=<Kilometers_Driven &le; 72500.0<br/>mse = 0.002<br/>samples = 2<br/>value = 1.85>, fillcolor="#fffefd"] ;
463 -> 471 ;
472 [label=<mse = 0.0<br/>samples = 1<br/>value = 1.9>, fillcolor="#fffefd"] ;
471 -> 472 ;
473 [label=<mse = -0.0<br/>samples = 1<br/>value = 1.8>, fillcolor="#fffefd"] ;
471 -> 473 ;
474 [label=<Location &le; 3.0<br/>mse = 0.038<br/>samples = 5<br/>value = 2.272>, fillcolor="#fffefd"] ;
462 -> 474 ;
475 [label=<mse = 0.0<br/>samples = 1<br/>value = 1.9>, fillcolor="#fffefd"] ;
474 -> 475 ;
476 [label=<Location &le; 4.5<br/>mse = 0.004<br/>samples = 4<br/>value = 2.365>, fillcolor="#fffdfd"] ;
474 -> 476 ;
477 [label=<mse = 0.0<br/>samples = 1<br/>value = 2.25>, fillcolor="#fffefd"] ;
476 -> 477 ;
478 [label=<Kilometers_Driven &le; 69500.0<br/>mse = 0.0<br/>samples = 3<br/>value = 2.403>, fillcolor="#fffdfd"] ;
476 -> 478 ;
479 [label=<mse = 0.0<br/>samples = 1<br/>value = 2.4>, fillcolor="#fffdfd"] ;
478 -> 479 ;
480 [label=<Name &le; 314.0<br/>mse = 0.0<br/>samples = 2<br/>value = 2.405>, fillcolor="#fffdfd"] ;
478 -> 480 ;
481 [label=<mse = 0.0<br/>samples = 1<br/>value = 2.41>, fillcolor="#fffdfd"] ;
480 -> 481 ;
482 [label=<mse = -0.0<br/>samples = 1<br/>value = 2.4>, fillcolor="#fffdfd"] ;
480 -> 482 ;
483 [label=<Power &le; 63.05<br/>mse = 0.216<br/>samples = 42<br/>value = 1.789>, fillcolor="#fffefd"] ;
421 -> 483 ;
484 [label=<Fuel_Type &le; 3.5<br/>mse = 0.118<br/>samples = 14<br/>value = 1.451>, fillcolor="#fffefe"] ;
483 -> 484 ;
485 [label=<Location &le; 7.5<br/>mse = 0.074<br/>samples = 3<br/>value = 1.89>, fillcolor="#fffefd"] ;
484 -> 485 ;
486 [label=<mse = 0.0<br/>samples = 1<br/>value = 2.27>, fillcolor="#fffefd"] ;
485 -> 486 ;
487 [label=<Kilometers_Driven &le; 63500.0<br/>mse = 0.002<br/>samples = 2<br/>value = 1.7>, fillcolor="#fffefd"] ;
485 -> 487 ;
488 [label=<mse = 0.0<br/>samples = 1<br/>value = 1.65>, fillcolor="#fffefd"] ;
487 -> 488 ;
489 [label=<mse = 0.0<br/>samples = 1<br/>value = 1.75>, fillcolor="#fffefd"] ;
487 -> 489 ;
490 [label=<Location &le; 8.5<br/>mse = 0.064<br/>samples = 11<br/>value = 1.332>, fillcolor="#fffefe"] ;
484 -> 490 ;
491 [label=<Kilometers_Driven &le; 65539.0<br/>mse = 0.043<br/>samples = 6<br/>value = 1.158>, fillcolor="#fffefe"] ;
490 -> 491 ;
492 [label=<Name &le; 1101.0<br/>mse = 0.037<br/>samples = 4<br/>value = 1.252>, fillcolor="#fffefe"] ;
491 -> 492 ;
493 [label=<Name &le; 595.5<br/>mse = 0.021<br/>samples = 3<br/>value = 1.337>, fillcolor="#fffefe"] ;
492 -> 493 ;
494 [label=<mse = 0.0<br/>samples = 1<br/>value = 1.15>, fillcolor="#fffefe"] ;
493 -> 494 ;
495 [label=<Name &le; 783.5<br/>mse = 0.005<br/>samples = 2<br/>value = 1.43>, fillcolor="#fffefe"] ;
493 -> 495 ;
496 [label=<mse = 0.0<br/>samples = 1<br/>value = 1.36>, fillcolor="#fffefe"] ;
495 -> 496 ;
497 [label=<mse = -0.0<br/>samples = 1<br/>value = 1.5>, fillcolor="#fffefe"] ;
495 -> 497 ;
498 [label=<mse = 0.0<br/>samples = 1<br/>value = 1.0>, fillcolor="#fffffe"] ;
492 -> 498 ;
499 [label=<Location &le; 7.0<br/>mse = 0.003<br/>samples = 2<br/>value = 0.97>, fillcolor="#fffffe"] ;
491 -> 499 ;
500 [label=<mse = 0.0<br/>samples = 1<br/>value = 0.92>, fillcolor="#fffffe"] ;
499 -> 500 ;
501 [label=<mse = 0.0<br/>samples = 1<br/>value = 1.02>, fillcolor="#fffffe"] ;
499 -> 501 ;
502 [label=<Owner_Type &le; 1.0<br/>mse = 0.009<br/>samples = 5<br/>value = 1.54>, fillcolor="#fffefe"] ;
490 -> 502 ;
503 [label=<Kilometers_Driven &le; 63000.0<br/>mse = 0.001<br/>samples = 3<br/>value = 1.467>, fillcolor="#fffefe"] ;
502 -> 503 ;
504 [label=<mse = -0.0<br/>samples = 2<br/>value = 1.45>, fillcolor="#fffefe"] ;
503 -> 504 ;
505 [label=<mse = 0.0<br/>samples = 1<br/>value = 1.5>, fillcolor="#fffefe"] ;
503 -> 505 ;
506 [label=<Name &le; 397.0<br/>mse = 0.002<br/>samples = 2<br/>value = 1.65>, fillcolor="#fffefd"] ;
502 -> 506 ;
507 [label=<mse = 0.0<br/>samples = 1<br/>value = 1.6>, fillcolor="#fffefe"] ;
506 -> 507 ;
508 [label=<mse = 0.0<br/>samples = 1<br/>value = 1.7>, fillcolor="#fffefd"] ;
506 -> 508 ;
509 [label=<Kilometers_Driven &le; 95501.0<br/>mse = 0.179<br/>samples = 28<br/>value = 1.958>, fillcolor="#fffefd"] ;
483 -> 509 ;
510 [label=<Name &le; 1198.0<br/>mse = 0.173<br/>samples = 23<br/>value = 2.041>, fillcolor="#fffefd"] ;
509 -> 510 ;
511 [label=<Engine &le; 1247.5<br/>mse = 0.117<br/>samples = 16<br/>value = 2.156>, fillcolor="#fffefd"] ;
510 -> 511 ;
512 [label=<Location &le; 9.5<br/>mse = 0.066<br/>samples = 14<br/>value = 2.246>, fillcolor="#fffefd"] ;
511 -> 512 ;
513 [label=<Power &le; 66.4<br/>mse = 0.053<br/>samples = 10<br/>value = 2.334>, fillcolor="#fffefd"] ;
512 -> 513 ;
514 [label=<mse = 0.0<br/>samples = 1<br/>value = 2.87>, fillcolor="#fffdfc"] ;
513 -> 514 ;
515 [label=<Power &le; 66.87<br/>mse = 0.023<br/>samples = 9<br/>value = 2.274>, fillcolor="#fffefd"] ;
513 -> 515 ;
516 [label=<mse = 0.0<br/>samples = 1<br/>value = 1.95>, fillcolor="#fffefd"] ;
515 -> 516 ;
517 [label=<Kilometers_Driven &le; 69504.5<br/>mse = 0.011<br/>samples = 8<br/>value = 2.315>, fillcolor="#fffefd"] ;
515 -> 517 ;
518 [label=<Location &le; 7.5<br/>mse = 0.005<br/>samples = 7<br/>value = 2.346>, fillcolor="#fffdfd"] ;
517 -> 518 ;
519 [label=<Power &le; 69.025<br/>mse = 0.004<br/>samples = 4<br/>value = 2.305>, fillcolor="#fffefd"] ;
518 -> 519 ;
520 [label=<Kilometers_Driven &le; 58000.0<br/>mse = 0.001<br/>samples = 3<br/>value = 2.273>, fillcolor="#fffefd"] ;
519 -> 520 ;
521 [label=<mse = 0.0<br/>samples = 2<br/>value = 2.25>, fillcolor="#fffefd"] ;
520 -> 521 ;
522 [label=<mse = -0.0<br/>samples = 1<br/>value = 2.32>, fillcolor="#fffefd"] ;
520 -> 522 ;
523 [label=<mse = -0.0<br/>samples = 1<br/>value = 2.4>, fillcolor="#fffdfd"] ;
519 -> 523 ;
524 [label=<Kilometers_Driven &le; 24911.0<br/>mse = 0.002<br/>samples = 3<br/>value = 2.4>, fillcolor="#fffdfd"] ;
518 -> 524 ;
525 [label=<mse = 0.0<br/>samples = 1<br/>value = 2.45>, fillcolor="#fffdfd"] ;
524 -> 525 ;
526 [label=<Mileage &le; 19.05<br/>mse = 0.001<br/>samples = 2<br/>value = 2.375>, fillcolor="#fffdfd"] ;
524 -> 526 ;
527 [label=<mse = 0.0<br/>samples = 1<br/>value = 2.4>, fillcolor="#fffdfd"] ;
526 -> 527 ;
528 [label=<mse = 0.0<br/>samples = 1<br/>value = 2.35>, fillcolor="#fffdfd"] ;
526 -> 528 ;
529 [label=<mse = -0.0<br/>samples = 1<br/>value = 2.1>, fillcolor="#fffefd"] ;
517 -> 529 ;
530 [label=<Name &le; 1196.5<br/>mse = 0.032<br/>samples = 4<br/>value = 2.025>, fillcolor="#fffefd"] ;
512 -> 530 ;
531 [label=<Year &le; 2009.5<br/>mse = 0.009<br/>samples = 3<br/>value = 1.933>, fillcolor="#fffefd"] ;
530 -> 531 ;
532 [label=<mse = 0.0<br/>samples = 1<br/>value = 1.8>, fillcolor="#fffefd"] ;
531 -> 532 ;
533 [label=<mse = 0.0<br/>samples = 2<br/>value = 2.0>, fillcolor="#fffefd"] ;
531 -> 533 ;
534 [label=<mse = 0.0<br/>samples = 1<br/>value = 2.3>, fillcolor="#fffefd"] ;
530 -> 534 ;
535 [label=<Kilometers_Driven &le; 78242.0<br/>mse = 0.016<br/>samples = 2<br/>value = 1.525>, fillcolor="#fffefe"] ;
511 -> 535 ;
536 [label=<mse = 0.0<br/>samples = 1<br/>value = 1.65>, fillcolor="#fffefd"] ;
535 -> 536 ;
537 [label=<mse = -0.0<br/>samples = 1<br/>value = 1.4>, fillcolor="#fffefe"] ;
535 -> 537 ;
538 [label=<Power &le; 68.55<br/>mse = 0.203<br/>samples = 7<br/>value = 1.78>, fillcolor="#fffefd"] ;
510 -> 538 ;
539 [label=<Name &le; 1221.5<br/>mse = 0.054<br/>samples = 6<br/>value = 1.618>, fillcolor="#fffefe"] ;
538 -> 539 ;
540 [label=<Power &le; 65.52<br/>mse = 0.004<br/>samples = 3<br/>value = 1.833>, fillcolor="#fffefd"] ;
539 -> 540 ;
541 [label=<Mileage &le; 16.1<br/>mse = 0.001<br/>samples = 2<br/>value = 1.875>, fillcolor="#fffefd"] ;
540 -> 541 ;
542 [label=<mse = 0.0<br/>samples = 1<br/>value = 1.85>, fillcolor="#fffefd"] ;
541 -> 542 ;
543 [label=<mse = 0.0<br/>samples = 1<br/>value = 1.9>, fillcolor="#fffefd"] ;
541 -> 543 ;
544 [label=<mse = 0.0<br/>samples = 1<br/>value = 1.75>, fillcolor="#fffefd"] ;
540 -> 544 ;
545 [label=<Owner_Type &le; 1.0<br/>mse = 0.012<br/>samples = 3<br/>value = 1.403>, fillcolor="#fffefe"] ;
539 -> 545 ;
546 [label=<Engine &le; 1095.5<br/>mse = 0.0<br/>samples = 2<br/>value = 1.48>, fillcolor="#fffefe"] ;
545 -> 546 ;
547 [label=<mse = 0.0<br/>samples = 1<br/>value = 1.46>, fillcolor="#fffefe"] ;
546 -> 547 ;
548 [label=<mse = 0.0<br/>samples = 1<br/>value = 1.5>, fillcolor="#fffefe"] ;
546 -> 548 ;
549 [label=<mse = 0.0<br/>samples = 1<br/>value = 1.25>, fillcolor="#fffefe"] ;
545 -> 549 ;
550 [label=<mse = -0.0<br/>samples = 1<br/>value = 2.75>, fillcolor="#fffdfc"] ;
538 -> 550 ;
551 [label=<Owner_Type &le; 2.5<br/>mse = 0.031<br/>samples = 5<br/>value = 1.576>, fillcolor="#fffefe"] ;
509 -> 551 ;
552 [label=<Location &le; 7.0<br/>mse = 0.012<br/>samples = 4<br/>value = 1.65>, fillcolor="#fffefd"] ;
551 -> 552 ;
553 [label=<Kilometers_Driven &le; 123000.0<br/>mse = 0.002<br/>samples = 2<br/>value = 1.555>, fillcolor="#fffefe"] ;
552 -> 553 ;
554 [label=<mse = 0.0<br/>samples = 1<br/>value = 1.51>, fillcolor="#fffefe"] ;
553 -> 554 ;
555 [label=<mse = -0.0<br/>samples = 1<br/>value = 1.6>, fillcolor="#fffefe"] ;
553 -> 555 ;
556 [label=<Name &le; 768.5<br/>mse = 0.003<br/>samples = 2<br/>value = 1.745>, fillcolor="#fffefd"] ;
552 -> 556 ;
557 [label=<mse = 0.0<br/>samples = 1<br/>value = 1.8>, fillcolor="#fffefd"] ;
556 -> 557 ;
558 [label=<mse = -0.0<br/>samples = 1<br/>value = 1.69>, fillcolor="#fffefd"] ;
556 -> 558 ;
559 [label=<mse = 0.0<br/>samples = 1<br/>value = 1.28>, fillcolor="#fffefe"] ;
551 -> 559 ;
560 [label=<Name &le; 248.5<br/>mse = 0.282<br/>samples = 61<br/>value = 2.46>, fillcolor="#fffdfc"] ;
420 -> 560 ;
561 [label=<Owner_Type &le; 1.0<br/>mse = 0.292<br/>samples = 3<br/>value = 1.75>, fillcolor="#fffefd"] ;
560 -> 561 ;
562 [label=<mse = 0.0<br/>samples = 1<br/>value = 2.5>, fillcolor="#fffdfc"] ;
561 -> 562 ;
563 [label=<Name &le; 189.0<br/>mse = 0.016<br/>samples = 2<br/>value = 1.375>, fillcolor="#fffefe"] ;
561 -> 563 ;
564 [label=<mse = 0.0<br/>samples = 1<br/>value = 1.5>, fillcolor="#fffefe"] ;
563 -> 564 ;
565 [label=<mse = 0.0<br/>samples = 1<br/>value = 1.25>, fillcolor="#fffefe"] ;
563 -> 565 ;
566 [label=<Name &le; 691.5<br/>mse = 0.255<br/>samples = 58<br/>value = 2.497>, fillcolor="#fffdfc"] ;
560 -> 566 ;
567 [label=<Mileage &le; 19.905<br/>mse = 0.293<br/>samples = 18<br/>value = 2.773>, fillcolor="#fffdfc"] ;
566 -> 567 ;
568 [label=<Kilometers_Driven &le; 56000.0<br/>mse = 0.247<br/>samples = 10<br/>value = 3.032>, fillcolor="#fffdfc"] ;
567 -> 568 ;
569 [label=<Mileage &le; 14.525<br/>mse = 0.053<br/>samples = 4<br/>value = 3.445>, fillcolor="#fffdfb"] ;
568 -> 569 ;
570 [label=<mse = 0.0<br/>samples = 1<br/>value = 3.1>, fillcolor="#fffdfc"] ;
569 -> 570 ;
571 [label=<Fuel_Type &le; 2.5<br/>mse = 0.018<br/>samples = 3<br/>value = 3.56>, fillcolor="#fefdfb"] ;
569 -> 571 ;
572 [label=<mse = 0.0<br/>samples = 1<br/>value = 3.75>, fillcolor="#fefcfb"] ;
571 -> 572 ;
573 [label=<Owner_Type &le; 1.0<br/>mse = 0.0<br/>samples = 2<br/>value = 3.465>, fillcolor="#fffdfb"] ;
571 -> 573 ;
574 [label=<mse = 0.0<br/>samples = 1<br/>value = 3.46>, fillcolor="#fffdfb"] ;
573 -> 574 ;
575 [label=<mse = 0.0<br/>samples = 1<br/>value = 3.47>, fillcolor="#fffdfb"] ;
573 -> 575 ;
576 [label=<Kilometers_Driven &le; 114071.5<br/>mse = 0.186<br/>samples = 6<br/>value = 2.757>, fillcolor="#fffdfc"] ;
568 -> 576 ;
577 [label=<Mileage &le; 18.865<br/>mse = 0.12<br/>samples = 5<br/>value = 2.888>, fillcolor="#fffdfc"] ;
576 -> 577 ;
578 [label=<Kilometers_Driven &le; 66732.5<br/>mse = 0.096<br/>samples = 4<br/>value = 2.785>, fillcolor="#fffdfc"] ;
577 -> 578 ;
579 [label=<Mileage &le; 16.76<br/>mse = 0.009<br/>samples = 2<br/>value = 2.495>, fillcolor="#fffdfc"] ;
578 -> 579 ;
580 [label=<mse = 0.0<br/>samples = 1<br/>value = 2.4>, fillcolor="#fffdfd"] ;
579 -> 580 ;
581 [label=<mse = -0.0<br/>samples = 1<br/>value = 2.59>, fillcolor="#fffdfc"] ;
579 -> 581 ;
582 [label=<Power &le; 69.0<br/>mse = 0.016<br/>samples = 2<br/>value = 3.075>, fillcolor="#fffdfc"] ;
578 -> 582 ;
583 [label=<mse = 0.0<br/>samples = 1<br/>value = 3.2>, fillcolor="#fffdfc"] ;
582 -> 583 ;
584 [label=<mse = 0.0<br/>samples = 1<br/>value = 2.95>, fillcolor="#fffdfc"] ;
582 -> 584 ;
585 [label=<mse = 0.0<br/>samples = 1<br/>value = 3.3>, fillcolor="#fffdfb"] ;
577 -> 585 ;
586 [label=<mse = -0.0<br/>samples = 1<br/>value = 2.1>, fillcolor="#fffefd"] ;
576 -> 586 ;
587 [label=<Kilometers_Driven &le; 33500.0<br/>mse = 0.162<br/>samples = 8<br/>value = 2.45>, fillcolor="#fffdfd"] ;
567 -> 587 ;
588 [label=<mse = 0.0<br/>samples = 1<br/>value = 3.2>, fillcolor="#fffdfc"] ;
587 -> 588 ;
589 [label=<Power &le; 68.025<br/>mse = 0.093<br/>samples = 7<br/>value = 2.343>, fillcolor="#fffdfd"] ;
587 -> 589 ;
590 [label=<Kilometers_Driven &le; 58250.0<br/>mse = 0.051<br/>samples = 6<br/>value = 2.433>, fillcolor="#fffdfd"] ;
589 -> 590 ;
591 [label=<mse = 0.0<br/>samples = 1<br/>value = 2.9>, fillcolor="#fffdfc"] ;
590 -> 591 ;
592 [label=<Kilometers_Driven &le; 75500.0<br/>mse = 0.009<br/>samples = 5<br/>value = 2.34>, fillcolor="#fffdfd"] ;
590 -> 592 ;
593 [label=<Mileage &le; 20.55<br/>mse = 0.001<br/>samples = 3<br/>value = 2.267>, fillcolor="#fffefd"] ;
592 -> 593 ;
594 [label=<mse = 0.0<br/>samples = 2<br/>value = 2.25>, fillcolor="#fffefd"] ;
593 -> 594 ;
595 [label=<mse = 0.0<br/>samples = 1<br/>value = 2.3>, fillcolor="#fffefd"] ;
593 -> 595 ;
596 [label=<Name &le; 327.5<br/>mse = 0.002<br/>samples = 2<br/>value = 2.45>, fillcolor="#fffdfd"] ;
592 -> 596 ;
597 [label=<mse = 0.0<br/>samples = 1<br/>value = 2.4>, fillcolor="#fffdfd"] ;
596 -> 597 ;
598 [label=<mse = -0.0<br/>samples = 1<br/>value = 2.5>, fillcolor="#fffdfc"] ;
596 -> 598 ;
599 [label=<mse = -0.0<br/>samples = 1<br/>value = 1.8>, fillcolor="#fffefd"] ;
589 -> 599 ;
600 [label=<Kilometers_Driven &le; 15528.0<br/>mse = 0.188<br/>samples = 40<br/>value = 2.373>, fillcolor="#fffdfd"] ;
566 -> 600 ;
601 [label=<Mileage &le; 20.7<br/>mse = 0.053<br/>samples = 2<br/>value = 3.13>, fillcolor="#fffdfc"] ;
600 -> 601 ;
602 [label=<mse = 0.0<br/>samples = 1<br/>value = 2.9>, fillcolor="#fffdfc"] ;
601 -> 602 ;
603 [label=<mse = -0.0<br/>samples = 1<br/>value = 3.36>, fillcolor="#fffdfb"] ;
601 -> 603 ;
604 [label=<Power &le; 40.65<br/>mse = 0.163<br/>samples = 38<br/>value = 2.333>, fillcolor="#fffefd"] ;
600 -> 604 ;
605 [label=<Location &le; 7.5<br/>mse = 0.031<br/>samples = 2<br/>value = 1.675>, fillcolor="#fffefd"] ;
604 -> 605 ;
606 [label=<mse = 0.0<br/>samples = 1<br/>value = 1.85>, fillcolor="#fffefd"] ;
605 -> 606 ;
607 [label=<mse = 0.0<br/>samples = 1<br/>value = 1.5>, fillcolor="#fffefe"] ;
605 -> 607 ;
608 [label=<Name &le; 963.0<br/>mse = 0.145<br/>samples = 36<br/>value = 2.37>, fillcolor="#fffdfd"] ;
604 -> 608 ;
609 [label=<Mileage &le; 19.505<br/>mse = 0.014<br/>samples = 11<br/>value = 2.164>, fillcolor="#fffefd"] ;
608 -> 609 ;
610 [label=<mse = 0.0<br/>samples = 2<br/>value = 2.0>, fillcolor="#fffefd"] ;
609 -> 610 ;
611 [label=<Owner_Type &le; 1.0<br/>mse = 0.009<br/>samples = 9<br/>value = 2.2>, fillcolor="#fffefd"] ;
609 -> 611 ;
612 [label=<Kilometers_Driven &le; 58000.0<br/>mse = 0.003<br/>samples = 7<br/>value = 2.157>, fillcolor="#fffefd"] ;
611 -> 612 ;
613 [label=<Location &le; 6.5<br/>mse = 0.001<br/>samples = 2<br/>value = 2.225>, fillcolor="#fffefd"] ;
612 -> 613 ;
614 [label=<mse = 0.0<br/>samples = 1<br/>value = 2.2>, fillcolor="#fffefd"] ;
613 -> 614 ;
615 [label=<mse = -0.0<br/>samples = 1<br/>value = 2.25>, fillcolor="#fffefd"] ;
613 -> 615 ;
616 [label=<Location &le; 4.5<br/>mse = 0.002<br/>samples = 5<br/>value = 2.13>, fillcolor="#fffefd"] ;
612 -> 616 ;
617 [label=<mse = 0.0<br/>samples = 2<br/>value = 2.1>, fillcolor="#fffefd"] ;
616 -> 617 ;
618 [label=<Name &le; 960.5<br/>mse = 0.002<br/>samples = 3<br/>value = 2.15>, fillcolor="#fffefd"] ;
616 -> 618 ;
619 [label=<Power &le; 67.575<br/>mse = 0.001<br/>samples = 2<br/>value = 2.175>, fillcolor="#fffefd"] ;
618 -> 619 ;
620 [label=<mse = 0.0<br/>samples = 1<br/>value = 2.2>, fillcolor="#fffefd"] ;
619 -> 620 ;
621 [label=<mse = 0.0<br/>samples = 1<br/>value = 2.15>, fillcolor="#fffefd"] ;
619 -> 621 ;
622 [label=<mse = -0.0<br/>samples = 1<br/>value = 2.1>, fillcolor="#fffefd"] ;
618 -> 622 ;
623 [label=<Name &le; 935.5<br/>mse = 0.003<br/>samples = 2<br/>value = 2.35>, fillcolor="#fffdfd"] ;
611 -> 623 ;
624 [label=<mse = 0.0<br/>samples = 1<br/>value = 2.4>, fillcolor="#fffdfd"] ;
623 -> 624 ;
625 [label=<mse = 0.0<br/>samples = 1<br/>value = 2.3>, fillcolor="#fffefd"] ;
623 -> 625 ;
626 [label=<Power &le; 69.5<br/>mse = 0.176<br/>samples = 25<br/>value = 2.46>, fillcolor="#fffdfc"] ;
608 -> 626 ;
627 [label=<Name &le; 967.5<br/>mse = 0.121<br/>samples = 22<br/>value = 2.525>, fillcolor="#fffdfc"] ;
626 -> 627 ;
628 [label=<mse = 0.0<br/>samples = 1<br/>value = 3.22>, fillcolor="#fffdfc"] ;
627 -> 628 ;
629 [label=<Engine &le; 1428.5<br/>mse = 0.103<br/>samples = 21<br/>value = 2.492>, fillcolor="#fffdfc"] ;
627 -> 629 ;
630 [label=<Mileage &le; 18.95<br/>mse = 0.072<br/>samples = 16<br/>value = 2.409>, fillcolor="#fffdfd"] ;
629 -> 630 ;
631 [label=<Name &le; 1209.0<br/>mse = 0.056<br/>samples = 7<br/>value = 2.571>, fillcolor="#fffdfc"] ;
630 -> 631 ;
632 [label=<Kilometers_Driven &le; 38937.0<br/>mse = 0.013<br/>samples = 5<br/>value = 2.46>, fillcolor="#fffdfc"] ;
631 -> 632 ;
633 [label=<mse = 0.0<br/>samples = 1<br/>value = 2.25>, fillcolor="#fffefd"] ;
632 -> 633 ;
634 [label=<Location &le; 2.0<br/>mse = 0.003<br/>samples = 4<br/>value = 2.512>, fillcolor="#fffdfc"] ;
632 -> 634 ;
635 [label=<mse = 0.0<br/>samples = 1<br/>value = 2.6>, fillcolor="#fffdfc"] ;
634 -> 635 ;
636 [label=<Location &le; 8.0<br/>mse = 0.001<br/>samples = 3<br/>value = 2.483>, fillcolor="#fffdfc"] ;
634 -> 636 ;
637 [label=<mse = 0.0<br/>samples = 2<br/>value = 2.5>, fillcolor="#fffdfc"] ;
636 -> 637 ;
638 [label=<mse = 0.0<br/>samples = 1<br/>value = 2.45>, fillcolor="#fffdfd"] ;
636 -> 638 ;
639 [label=<Engine &le; 1029.5<br/>mse = 0.053<br/>samples = 2<br/>value = 2.85>, fillcolor="#fffdfc"] ;
631 -> 639 ;
640 [label=<mse = 0.0<br/>samples = 1<br/>value = 3.08>, fillcolor="#fffdfc"] ;
639 -> 640 ;
641 [label=<mse = -0.0<br/>samples = 1<br/>value = 2.62>, fillcolor="#fffdfc"] ;
639 -> 641 ;
642 [label=<Kilometers_Driven &le; 73000.0<br/>mse = 0.049<br/>samples = 9<br/>value = 2.282>, fillcolor="#fffefd"] ;
630 -> 642 ;
643 [label=<Kilometers_Driven &le; 24597.0<br/>mse = 0.048<br/>samples = 5<br/>value = 2.398>, fillcolor="#fffdfd"] ;
642 -> 643 ;
644 [label=<mse = 0.0<br/>samples = 1<br/>value = 2.0>, fillcolor="#fffefd"] ;
643 -> 644 ;
645 [label=<Engine &le; 897.0<br/>mse = 0.011<br/>samples = 4<br/>value = 2.498>, fillcolor="#fffdfc"] ;
643 -> 645 ;
646 [label=<Location &le; 3.0<br/>mse = 0.0<br/>samples = 2<br/>value = 2.395>, fillcolor="#fffdfd"] ;
645 -> 646 ;
647 [label=<mse = 0.0<br/>samples = 1<br/>value = 2.39>, fillcolor="#fffdfd"] ;
646 -> 647 ;
648 [label=<mse = 0.0<br/>samples = 1<br/>value = 2.4>, fillcolor="#fffdfd"] ;
646 -> 648 ;
649 [label=<mse = -0.0<br/>samples = 2<br/>value = 2.6>, fillcolor="#fffdfc"] ;
645 -> 649 ;
650 [label=<Power &le; 68.05<br/>mse = 0.012<br/>samples = 4<br/>value = 2.137>, fillcolor="#fffefd"] ;
642 -> 650 ;
651 [label=<Power &le; 56.7<br/>mse = 0.004<br/>samples = 3<br/>value = 2.083>, fillcolor="#fffefd"] ;
650 -> 651 ;
652 [label=<Location &le; 3.5<br/>mse = 0.001<br/>samples = 2<br/>value = 2.125>, fillcolor="#fffefd"] ;
651 -> 652 ;
653 [label=<mse = 0.0<br/>samples = 1<br/>value = 2.1>, fillcolor="#fffefd"] ;
652 -> 653 ;
654 [label=<mse = -0.0<br/>samples = 1<br/>value = 2.15>, fillcolor="#fffefd"] ;
652 -> 654 ;
655 [label=<mse = 0.0<br/>samples = 1<br/>value = 2.0>, fillcolor="#fffefd"] ;
651 -> 655 ;
656 [label=<mse = 0.0<br/>samples = 1<br/>value = 2.3>, fillcolor="#fffefd"] ;
650 -> 656 ;
657 [label=<Kilometers_Driven &le; 103440.0<br/>mse = 0.107<br/>samples = 5<br/>value = 2.76>, fillcolor="#fffdfc"] ;
629 -> 657 ;
658 [label=<Location &le; 9.0<br/>mse = 0.043<br/>samples = 4<br/>value = 2.625>, fillcolor="#fffdfc"] ;
657 -> 658 ;
659 [label=<Kilometers_Driven &le; 39006.0<br/>mse = 0.011<br/>samples = 3<br/>value = 2.733>, fillcolor="#fffdfc"] ;
658 -> 659 ;
660 [label=<mse = 0.0<br/>samples = 1<br/>value = 2.85>, fillcolor="#fffdfc"] ;
659 -> 660 ;
661 [label=<Kilometers_Driven &le; 61005.0<br/>mse = 0.006<br/>samples = 2<br/>value = 2.675>, fillcolor="#fffdfc"] ;
659 -> 661 ;
662 [label=<mse = 0.0<br/>samples = 1<br/>value = 2.6>, fillcolor="#fffdfc"] ;
661 -> 662 ;
663 [label=<mse = 0.0<br/>samples = 1<br/>value = 2.75>, fillcolor="#fffdfc"] ;
661 -> 663 ;
664 [label=<mse = -0.0<br/>samples = 1<br/>value = 2.3>, fillcolor="#fffefd"] ;
658 -> 664 ;
665 [label=<mse = 0.0<br/>samples = 1<br/>value = 3.3>, fillcolor="#fffdfb"] ;
657 -> 665 ;
666 [label=<Kilometers_Driven &le; 65741.0<br/>mse = 0.317<br/>samples = 3<br/>value = 1.983>, fillcolor="#fffefd"] ;
626 -> 666 ;
667 [label=<Power &le; 71.5<br/>mse = 0.016<br/>samples = 2<br/>value = 2.375>, fillcolor="#fffdfd"] ;
666 -> 667 ;
668 [label=<mse = 0.0<br/>samples = 1<br/>value = 2.5>, fillcolor="#fffdfc"] ;
667 -> 668 ;
669 [label=<mse = 0.0<br/>samples = 1<br/>value = 2.25>, fillcolor="#fffefd"] ;
667 -> 669 ;
670 [label=<mse = -0.0<br/>samples = 1<br/>value = 1.2>, fillcolor="#fffefe"] ;
666 -> 670 ;
671 [label=<Location &le; 5.5<br/>mse = 0.762<br/>samples = 309<br/>value = 3.002>, fillcolor="#fffdfc"] ;
405 -> 671 ;
672 [label=<Year &le; 2010.5<br/>mse = 0.735<br/>samples = 134<br/>value = 3.433>, fillcolor="#fffdfb"] ;
671 -> 672 ;
673 [label=<Name &le; 319.5<br/>mse = 0.481<br/>samples = 74<br/>value = 3.028>, fillcolor="#fffdfc"] ;
672 -> 673 ;
674 [label=<Location &le; 3.5<br/>mse = 0.086<br/>samples = 6<br/>value = 2.122>, fillcolor="#fffefd"] ;
673 -> 674 ;
675 [label=<Fuel_Type &le; 2.5<br/>mse = 0.018<br/>samples = 3<br/>value = 2.377>, fillcolor="#fffdfd"] ;
674 -> 675 ;
676 [label=<mse = 0.0<br/>samples = 1<br/>value = 2.5>, fillcolor="#fffdfc"] ;
675 -> 676 ;
677 [label=<Kilometers_Driven &le; 65118.0<br/>mse = 0.016<br/>samples = 2<br/>value = 2.315>, fillcolor="#fffefd"] ;
675 -> 677 ;
678 [label=<mse = 0.0<br/>samples = 1<br/>value = 2.44>, fillcolor="#fffdfd"] ;
677 -> 678 ;
679 [label=<mse = 0.0<br/>samples = 1<br/>value = 2.19>, fillcolor="#fffefd"] ;
677 -> 679 ;
680 [label=<Kilometers_Driven &le; 115555.5<br/>mse = 0.024<br/>samples = 3<br/>value = 1.867>, fillcolor="#fffefd"] ;
674 -> 680 ;
681 [label=<Power &le; 78.1<br/>mse = 0.001<br/>samples = 2<br/>value = 1.975>, fillcolor="#fffefd"] ;
680 -> 681 ;
682 [label=<mse = 0.0<br/>samples = 1<br/>value = 1.95>, fillcolor="#fffefd"] ;
681 -> 682 ;
683 [label=<mse = 0.0<br/>samples = 1<br/>value = 2.0>, fillcolor="#fffefd"] ;
681 -> 683 ;
684 [label=<mse = 0.0<br/>samples = 1<br/>value = 1.65>, fillcolor="#fffefd"] ;
680 -> 684 ;
685 [label=<Fuel_Type &le; 2.5<br/>mse = 0.437<br/>samples = 68<br/>value = 3.108>, fillcolor="#fffdfc"] ;
673 -> 685 ;
686 [label=<Kilometers_Driven &le; 143105.0<br/>mse = 0.694<br/>samples = 23<br/>value = 3.469>, fillcolor="#fffdfb"] ;
685 -> 686 ;
687 [label=<Name &le; 1317.5<br/>mse = 0.424<br/>samples = 22<br/>value = 3.355>, fillcolor="#fffdfb"] ;
686 -> 687 ;
688 [label=<Name &le; 1133.5<br/>mse = 0.218<br/>samples = 18<br/>value = 3.469>, fillcolor="#fffdfb"] ;
687 -> 688 ;
689 [label=<Location &le; 3.5<br/>mse = 0.133<br/>samples = 12<br/>value = 3.271>, fillcolor="#fffdfb"] ;
688 -> 689 ;
690 [label=<Mileage &le; 16.5<br/>mse = 0.063<br/>samples = 5<br/>value = 2.97>, fillcolor="#fffdfc"] ;
689 -> 690 ;
691 [label=<mse = 0.0<br/>samples = 1<br/>value = 3.45>, fillcolor="#fffdfb"] ;
690 -> 691 ;
692 [label=<Mileage &le; 22.55<br/>mse = 0.006<br/>samples = 4<br/>value = 2.85>, fillcolor="#fffdfc"] ;
690 -> 692 ;
693 [label=<Mileage &le; 18.05<br/>mse = 0.004<br/>samples = 3<br/>value = 2.817>, fillcolor="#fffdfc"] ;
692 -> 693 ;
694 [label=<mse = 0.0<br/>samples = 1<br/>value = 2.9>, fillcolor="#fffdfc"] ;
693 -> 694 ;
695 [label=<Location &le; 1.0<br/>mse = 0.001<br/>samples = 2<br/>value = 2.775>, fillcolor="#fffdfc"] ;
693 -> 695 ;
696 [label=<mse = 0.0<br/>samples = 1<br/>value = 2.75>, fillcolor="#fffdfc"] ;
695 -> 696 ;
697 [label=<mse = 0.0<br/>samples = 1<br/>value = 2.8>, fillcolor="#fffdfc"] ;
695 -> 697 ;
698 [label=<mse = -0.0<br/>samples = 1<br/>value = 2.95>, fillcolor="#fffdfc"] ;
692 -> 698 ;
699 [label=<Owner_Type &le; 1.0<br/>mse = 0.072<br/>samples = 7<br/>value = 3.486>, fillcolor="#fffdfb"] ;
689 -> 699 ;
700 [label=<Name &le; 874.0<br/>mse = 0.041<br/>samples = 4<br/>value = 3.65>, fillcolor="#fefcfb"] ;
699 -> 700 ;
701 [label=<mse = 0.0<br/>samples = 1<br/>value = 3.85>, fillcolor="#fefcfb"] ;
700 -> 701 ;
702 [label=<Kilometers_Driven &le; 77454.0<br/>mse = 0.037<br/>samples = 3<br/>value = 3.583>, fillcolor="#fefdfb"] ;
700 -> 702 ;
703 [label=<mse = 0.0<br/>samples = 1<br/>value = 3.85>, fillcolor="#fefcfb"] ;
702 -> 703 ;
704 [label=<Kilometers_Driven &le; 95182.5<br/>mse = 0.002<br/>samples = 2<br/>value = 3.45>, fillcolor="#fffdfb"] ;
702 -> 704 ;
705 [label=<mse = 0.0<br/>samples = 1<br/>value = 3.4>, fillcolor="#fffdfb"] ;
704 -> 705 ;
706 [label=<mse = -0.0<br/>samples = 1<br/>value = 3.5>, fillcolor="#fffdfb"] ;
704 -> 706 ;
707 [label=<Engine &le; 1444.5<br/>mse = 0.029<br/>samples = 3<br/>value = 3.267>, fillcolor="#fffdfb"] ;
699 -> 707 ;
708 [label=<Engine &le; 1322.0<br/>mse = 0.002<br/>samples = 2<br/>value = 3.15>, fillcolor="#fffdfc"] ;
707 -> 708 ;
709 [label=<mse = 0.0<br/>samples = 1<br/>value = 3.2>, fillcolor="#fffdfc"] ;
708 -> 709 ;
710 [label=<mse = -0.0<br/>samples = 1<br/>value = 3.1>, fillcolor="#fffdfc"] ;
708 -> 710 ;
711 [label=<mse = 0.0<br/>samples = 1<br/>value = 3.5>, fillcolor="#fffdfb"] ;
707 -> 711 ;
712 [label=<Name &le; 1140.5<br/>mse = 0.151<br/>samples = 6<br/>value = 3.867>, fillcolor="#fefcfb"] ;
688 -> 712 ;
713 [label=<Kilometers_Driven &le; 109048.0<br/>mse = 0.021<br/>samples = 3<br/>value = 3.667>, fillcolor="#fefcfb"] ;
712 -> 713 ;
714 [label=<mse = 0.0<br/>samples = 1<br/>value = 3.5>, fillcolor="#fffdfb"] ;
713 -> 714 ;
715 [label=<mse = 0.01<br/>samples = 2<br/>value = 3.75>, fillcolor="#fefcfb"] ;
713 -> 715 ;
716 [label=<Kilometers_Driven &le; 85293.0<br/>mse = 0.201<br/>samples = 3<br/>value = 4.067>, fillcolor="#fefcfa"] ;
712 -> 716 ;
717 [label=<mse = 0.0<br/>samples = 1<br/>value = 3.45>, fillcolor="#fffdfb"] ;
716 -> 717 ;
718 [label=<Name &le; 1152.5<br/>mse = 0.016<br/>samples = 2<br/>value = 4.375>, fillcolor="#fefcfa"] ;
716 -> 718 ;
719 [label=<mse = 0.0<br/>samples = 1<br/>value = 4.5>, fillcolor="#fefcfa"] ;
718 -> 719 ;
720 [label=<mse = 0.0<br/>samples = 1<br/>value = 4.25>, fillcolor="#fefcfa"] ;
718 -> 720 ;
721 [label=<Owner_Type &le; 1.0<br/>mse = 1.027<br/>samples = 4<br/>value = 2.838>, fillcolor="#fffdfc"] ;
687 -> 721 ;
722 [label=<Name &le; 1728.0<br/>mse = 0.451<br/>samples = 3<br/>value = 3.317>, fillcolor="#fffdfb"] ;
721 -> 722 ;
723 [label=<Power &le; 82.5<br/>mse = 0.023<br/>samples = 2<br/>value = 2.85>, fillcolor="#fffdfc"] ;
722 -> 723 ;
724 [label=<mse = 0.0<br/>samples = 1<br/>value = 3.0>, fillcolor="#fffdfc"] ;
723 -> 724 ;
725 [label=<mse = -0.0<br/>samples = 1<br/>value = 2.7>, fillcolor="#fffdfc"] ;
723 -> 725 ;
726 [label=<mse = 0.0<br/>samples = 1<br/>value = 4.25>, fillcolor="#fefcfa"] ;
722 -> 726 ;
727 [label=<mse = -0.0<br/>samples = 1<br/>value = 1.4>, fillcolor="#fffefe"] ;
721 -> 727 ;
728 [label=<mse = -0.0<br/>samples = 1<br/>value = 5.99>, fillcolor="#fefbf8"] ;
686 -> 728 ;
729 [label=<Location &le; 1.5<br/>mse = 0.205<br/>samples = 45<br/>value = 2.923>, fillcolor="#fffdfc"] ;
685 -> 729 ;
730 [label=<Mileage &le; 15.0<br/>mse = 0.18<br/>samples = 12<br/>value = 3.241>, fillcolor="#fffdfc"] ;
729 -> 730 ;
731 [label=<mse = 0.0<br/>samples = 1<br/>value = 2.5>, fillcolor="#fffdfc"] ;
730 -> 731 ;
732 [label=<Transmission &le; 0.5<br/>mse = 0.141<br/>samples = 11<br/>value = 3.308>, fillcolor="#fffdfb"] ;
730 -> 732 ;
733 [label=<Mileage &le; 16.875<br/>mse = 0.012<br/>samples = 3<br/>value = 3.047>, fillcolor="#fffdfc"] ;
732 -> 733 ;
734 [label=<mse = 0.0<br/>samples = 1<br/>value = 3.2>, fillcolor="#fffdfc"] ;
733 -> 734 ;
735 [label=<Kilometers_Driven &le; 48500.0<br/>mse = 0.0<br/>samples = 2<br/>value = 2.97>, fillcolor="#fffdfc"] ;
733 -> 735 ;
736 [label=<mse = 0.0<br/>samples = 1<br/>value = 2.95>, fillcolor="#fffdfc"] ;
735 -> 736 ;
737 [label=<mse = 0.0<br/>samples = 1<br/>value = 2.99>, fillcolor="#fffdfc"] ;
735 -> 737 ;
738 [label=<Mileage &le; 17.25<br/>mse = 0.155<br/>samples = 8<br/>value = 3.406>, fillcolor="#fffdfb"] ;
732 -> 738 ;
739 [label=<Kilometers_Driven &le; 62500.0<br/>mse = 0.124<br/>samples = 3<br/>value = 3.717>, fillcolor="#fefcfb"] ;
738 -> 739 ;
740 [label=<mse = 0.0<br/>samples = 1<br/>value = 3.25>, fillcolor="#fffdfc"] ;
739 -> 740 ;
741 [label=<Engine &le; 1347.0<br/>mse = 0.023<br/>samples = 2<br/>value = 3.95>, fillcolor="#fefcfb"] ;
739 -> 741 ;
742 [label=<mse = 0.0<br/>samples = 1<br/>value = 4.1>, fillcolor="#fefcfa"] ;
741 -> 742 ;
743 [label=<mse = 0.0<br/>samples = 1<br/>value = 3.8>, fillcolor="#fefcfb"] ;
741 -> 743 ;
744 [label=<Kilometers_Driven &le; 58500.0<br/>mse = 0.081<br/>samples = 5<br/>value = 3.22>, fillcolor="#fffdfc"] ;
738 -> 744 ;
745 [label=<Name &le; 710.0<br/>mse = 0.01<br/>samples = 2<br/>value = 3.55>, fillcolor="#fefdfb"] ;
744 -> 745 ;
746 [label=<mse = 0.0<br/>samples = 1<br/>value = 3.45>, fillcolor="#fffdfb"] ;
745 -> 746 ;
747 [label=<mse = 0.0<br/>samples = 1<br/>value = 3.65>, fillcolor="#fefcfb"] ;
745 -> 747 ;
748 [label=<Engine &le; 1247.5<br/>mse = 0.007<br/>samples = 3<br/>value = 3.0>, fillcolor="#fffdfc"] ;
744 -> 748 ;
749 [label=<Kilometers_Driven &le; 67000.0<br/>mse = 0.002<br/>samples = 2<br/>value = 2.95>, fillcolor="#fffdfc"] ;
748 -> 749 ;
750 [label=<mse = 0.0<br/>samples = 1<br/>value = 3.0>, fillcolor="#fffdfc"] ;
749 -> 750 ;
751 [label=<mse = -0.0<br/>samples = 1<br/>value = 2.9>, fillcolor="#fffdfc"] ;
749 -> 751 ;
752 [label=<mse = 0.0<br/>samples = 1<br/>value = 3.1>, fillcolor="#fffdfc"] ;
748 -> 752 ;
753 [label=<Owner_Type &le; 1.0<br/>mse = 0.164<br/>samples = 33<br/>value = 2.808>, fillcolor="#fffdfc"] ;
729 -> 753 ;
754 [label=<Name &le; 1492.5<br/>mse = 0.108<br/>samples = 24<br/>value = 2.944>, fillcolor="#fffdfc"] ;
753 -> 754 ;
755 [label=<Kilometers_Driven &le; 86077.5<br/>mse = 0.099<br/>samples = 22<br/>value = 2.982>, fillcolor="#fffdfc"] ;
754 -> 755 ;
756 [label=<Kilometers_Driven &le; 75376.0<br/>mse = 0.098<br/>samples = 18<br/>value = 3.044>, fillcolor="#fffdfc"] ;
755 -> 756 ;
757 [label=<Mileage &le; 16.55<br/>mse = 0.062<br/>samples = 14<br/>value = 2.952>, fillcolor="#fffdfc"] ;
756 -> 757 ;
758 [label=<mse = 0.0<br/>samples = 1<br/>value = 3.3>, fillcolor="#fffdfb"] ;
757 -> 758 ;
759 [label=<Name &le; 741.0<br/>mse = 0.057<br/>samples = 13<br/>value = 2.925>, fillcolor="#fffdfc"] ;
757 -> 759 ;
760 [label=<Name &le; 710.0<br/>mse = 0.052<br/>samples = 12<br/>value = 2.952>, fillcolor="#fffdfc"] ;
759 -> 760 ;
761 [label=<Kilometers_Driven &le; 57000.0<br/>mse = 0.048<br/>samples = 11<br/>value = 2.925>, fillcolor="#fffdfc"] ;
760 -> 761 ;
762 [label=<Power &le; 98.65<br/>mse = 0.012<br/>samples = 4<br/>value = 3.062>, fillcolor="#fffdfc"] ;
761 -> 762 ;
763 [label=<mse = 0.0<br/>samples = 3<br/>value = 3.0>, fillcolor="#fffdfc"] ;
762 -> 763 ;
764 [label=<mse = 0.0<br/>samples = 1<br/>value = 3.25>, fillcolor="#fffdfc"] ;
762 -> 764 ;
765 [label=<Kilometers_Driven &le; 63000.0<br/>mse = 0.052<br/>samples = 7<br/>value = 2.847>, fillcolor="#fffdfc"] ;
761 -> 765 ;
766 [label=<mse = 0.0<br/>samples = 1<br/>value = 2.4>, fillcolor="#fffdfd"] ;
765 -> 766 ;
767 [label=<Kilometers_Driven &le; 64527.5<br/>mse = 0.022<br/>samples = 6<br/>value = 2.922>, fillcolor="#fffdfc"] ;
765 -> 767 ;
768 [label=<mse = 0.0<br/>samples = 1<br/>value = 3.1>, fillcolor="#fffdfc"] ;
767 -> 768 ;
769 [label=<Kilometers_Driven &le; 73600.0<br/>mse = 0.019<br/>samples = 5<br/>value = 2.886>, fillcolor="#fffdfc"] ;
767 -> 769 ;
770 [label=<Kilometers_Driven &le; 71049.5<br/>mse = 0.01<br/>samples = 4<br/>value = 2.832>, fillcolor="#fffdfc"] ;
769 -> 770 ;
771 [label=<Location &le; 4.5<br/>mse = 0.001<br/>samples = 2<br/>value = 2.775>, fillcolor="#fffdfc"] ;
770 -> 771 ;
772 [label=<mse = 0.0<br/>samples = 1<br/>value = 2.75>, fillcolor="#fffdfc"] ;
771 -> 772 ;
773 [label=<mse = 0.0<br/>samples = 1<br/>value = 2.8>, fillcolor="#fffdfc"] ;
771 -> 773 ;
774 [label=<Kilometers_Driven &le; 72349.5<br/>mse = 0.012<br/>samples = 2<br/>value = 2.89>, fillcolor="#fffdfc"] ;
770 -> 774 ;
775 [label=<mse = 0.0<br/>samples = 1<br/>value = 3.0>, fillcolor="#fffdfc"] ;
774 -> 775 ;
776 [label=<mse = 0.0<br/>samples = 1<br/>value = 2.78>, fillcolor="#fffdfc"] ;
774 -> 776 ;
777 [label=<mse = 0.0<br/>samples = 1<br/>value = 3.1>, fillcolor="#fffdfc"] ;
769 -> 777 ;
778 [label=<mse = 0.0<br/>samples = 1<br/>value = 3.25>, fillcolor="#fffdfc"] ;
760 -> 778 ;
779 [label=<mse = -0.0<br/>samples = 1<br/>value = 2.6>, fillcolor="#fffdfc"] ;
759 -> 779 ;
780 [label=<Year &le; 2009.5<br/>mse = 0.09<br/>samples = 4<br/>value = 3.367>, fillcolor="#fffdfb"] ;
756 -> 780 ;
781 [label=<mse = 0.0<br/>samples = 1<br/>value = 2.85>, fillcolor="#fffdfc"] ;
780 -> 781 ;
782 [label=<Power &le; 117.65<br/>mse = 0.001<br/>samples = 3<br/>value = 3.54>, fillcolor="#fefdfb"] ;
780 -> 782 ;
783 [label=<Power &le; 98.65<br/>mse = 0.0<br/>samples = 2<br/>value = 3.56>, fillcolor="#fefdfb"] ;
782 -> 783 ;
784 [label=<mse = 0.0<br/>samples = 1<br/>value = 3.55>, fillcolor="#fefdfb"] ;
783 -> 784 ;
785 [label=<mse = 0.0<br/>samples = 1<br/>value = 3.57>, fillcolor="#fefdfb"] ;
783 -> 785 ;
786 [label=<mse = 0.0<br/>samples = 1<br/>value = 3.5>, fillcolor="#fffdfb"] ;
782 -> 786 ;
787 [label=<Name &le; 558.5<br/>mse = 0.005<br/>samples = 4<br/>value = 2.7>, fillcolor="#fffdfc"] ;
755 -> 787 ;
788 [label=<mse = 0.0<br/>samples = 1<br/>value = 2.6>, fillcolor="#fffdfc"] ;
787 -> 788 ;
789 [label=<Kilometers_Driven &le; 89500.0<br/>mse = 0.002<br/>samples = 3<br/>value = 2.733>, fillcolor="#fffdfc"] ;
787 -> 789 ;
790 [label=<mse = 0.0<br/>samples = 1<br/>value = 2.8>, fillcolor="#fffdfc"] ;
789 -> 790 ;
791 [label=<mse = 0.0<br/>samples = 2<br/>value = 2.7>, fillcolor="#fffdfc"] ;
789 -> 791 ;
792 [label=<Mileage &le; 15.865<br/>mse = 0.016<br/>samples = 2<br/>value = 2.525>, fillcolor="#fffdfc"] ;
754 -> 792 ;
793 [label=<mse = 0.0<br/>samples = 1<br/>value = 2.65>, fillcolor="#fffdfc"] ;
792 -> 793 ;
794 [label=<mse = -0.0<br/>samples = 1<br/>value = 2.4>, fillcolor="#fffdfd"] ;
792 -> 794 ;
795 [label=<Transmission &le; 0.5<br/>mse = 0.134<br/>samples = 9<br/>value = 2.444>, fillcolor="#fffdfd"] ;
753 -> 795 ;
796 [label=<mse = 0.0<br/>samples = 1<br/>value = 3.25>, fillcolor="#fffdfc"] ;
795 -> 796 ;
797 [label=<Kilometers_Driven &le; 93500.0<br/>mse = 0.059<br/>samples = 8<br/>value = 2.344>, fillcolor="#fffdfd"] ;
795 -> 797 ;
798 [label=<Year &le; 2009.5<br/>mse = 0.033<br/>samples = 7<br/>value = 2.279>, fillcolor="#fffefd"] ;
797 -> 798 ;
799 [label=<Name &le; 421.0<br/>mse = 0.017<br/>samples = 5<br/>value = 2.37>, fillcolor="#fffdfd"] ;
798 -> 799 ;
800 [label=<mse = 0.0<br/>samples = 1<br/>value = 2.25>, fillcolor="#fffefd"] ;
799 -> 800 ;
801 [label=<Name &le; 544.5<br/>mse = 0.016<br/>samples = 4<br/>value = 2.4>, fillcolor="#fffdfd"] ;
799 -> 801 ;
802 [label=<mse = 0.0<br/>samples = 1<br/>value = 2.6>, fillcolor="#fffdfc"] ;
801 -> 802 ;
803 [label=<Name &le; 712.0<br/>mse = 0.004<br/>samples = 3<br/>value = 2.333>, fillcolor="#fffefd"] ;
801 -> 803 ;
804 [label=<mse = 0.0<br/>samples = 1<br/>value = 2.25>, fillcolor="#fffefd"] ;
803 -> 804 ;
805 [label=<Kilometers_Driven &le; 57973.0<br/>mse = 0.001<br/>samples = 2<br/>value = 2.375>, fillcolor="#fffdfd"] ;
803 -> 805 ;
806 [label=<mse = 0.0<br/>samples = 1<br/>value = 2.35>, fillcolor="#fffdfd"] ;
805 -> 806 ;
807 [label=<mse = 0.0<br/>samples = 1<br/>value = 2.4>, fillcolor="#fffdfd"] ;
805 -> 807 ;
808 [label=<Kilometers_Driven &le; 76159.5<br/>mse = 0.002<br/>samples = 2<br/>value = 2.05>, fillcolor="#fffefd"] ;
798 -> 808 ;
809 [label=<mse = 0.0<br/>samples = 1<br/>value = 2.0>, fillcolor="#fffefd"] ;
808 -> 809 ;
810 [label=<mse = 0.0<br/>samples = 1<br/>value = 2.1>, fillcolor="#fffefd"] ;
808 -> 810 ;
811 [label=<mse = -0.0<br/>samples = 1<br/>value = 2.8>, fillcolor="#fffdfc"] ;
797 -> 811 ;
812 [label=<Power &le; 109.25<br/>mse = 0.594<br/>samples = 60<br/>value = 3.933>, fillcolor="#fefcfb"] ;
672 -> 812 ;
813 [label=<Kilometers_Driven &le; 50377.0<br/>mse = 0.457<br/>samples = 45<br/>value = 3.719>, fillcolor="#fefcfb"] ;
812 -> 813 ;
814 [label=<Mileage &le; 21.35<br/>mse = 0.539<br/>samples = 11<br/>value = 4.206>, fillcolor="#fefcfa"] ;
813 -> 814 ;
815 [label=<Engine &le; 1197.5<br/>mse = 0.239<br/>samples = 10<br/>value = 4.027>, fillcolor="#fefcfb"] ;
814 -> 815 ;
816 [label=<Kilometers_Driven &le; 44500.0<br/>mse = 0.15<br/>samples = 8<br/>value = 3.86>, fillcolor="#fefcfb"] ;
815 -> 816 ;
817 [label=<Kilometers_Driven &le; 28100.0<br/>mse = 0.123<br/>samples = 5<br/>value = 3.696>, fillcolor="#fefcfb"] ;
816 -> 817 ;
818 [label=<mse = 0.0<br/>samples = 1<br/>value = 4.25>, fillcolor="#fefcfa"] ;
817 -> 818 ;
819 [label=<Power &le; 79.45<br/>mse = 0.058<br/>samples = 4<br/>value = 3.558>, fillcolor="#fefdfb"] ;
817 -> 819 ;
820 [label=<Transmission &le; 0.5<br/>mse = 0.002<br/>samples = 2<br/>value = 3.79>, fillcolor="#fefcfb"] ;
819 -> 820 ;
821 [label=<mse = 0.0<br/>samples = 1<br/>value = 3.83>, fillcolor="#fefcfb"] ;
820 -> 821 ;
822 [label=<mse = 0.0<br/>samples = 1<br/>value = 3.75>, fillcolor="#fefcfb"] ;
820 -> 822 ;
823 [label=<Owner_Type &le; 1.0<br/>mse = 0.006<br/>samples = 2<br/>value = 3.325>, fillcolor="#fffdfb"] ;
819 -> 823 ;
824 [label=<mse = 0.0<br/>samples = 1<br/>value = 3.4>, fillcolor="#fffdfb"] ;
823 -> 824 ;
825 [label=<mse = -0.0<br/>samples = 1<br/>value = 3.25>, fillcolor="#fffdfc"] ;
823 -> 825 ;
826 [label=<Location &le; 2.5<br/>mse = 0.075<br/>samples = 3<br/>value = 4.133>, fillcolor="#fefcfa"] ;
816 -> 826 ;
827 [label=<mse = 0.0<br/>samples = 1<br/>value = 4.5>, fillcolor="#fefcfa"] ;
826 -> 827 ;
828 [label=<Transmission &le; 0.5<br/>mse = 0.012<br/>samples = 2<br/>value = 3.95>, fillcolor="#fefcfb"] ;
826 -> 828 ;
829 [label=<mse = 0.0<br/>samples = 1<br/>value = 3.84>, fillcolor="#fefcfb"] ;
828 -> 829 ;
830 [label=<mse = 0.0<br/>samples = 1<br/>value = 4.06>, fillcolor="#fefcfb"] ;
828 -> 830 ;
831 [label=<Owner_Type &le; 1.0<br/>mse = 0.038<br/>samples = 2<br/>value = 4.695>, fillcolor="#fefcfa"] ;
815 -> 831 ;
832 [label=<mse = 0.0<br/>samples = 1<br/>value = 4.5>, fillcolor="#fefcfa"] ;
831 -> 832 ;
833 [label=<mse = -0.0<br/>samples = 1<br/>value = 4.89>, fillcolor="#fefbf9"] ;
831 -> 833 ;
834 [label=<mse = -0.0<br/>samples = 1<br/>value = 6.0>, fillcolor="#fefbf8"] ;
814 -> 834 ;
835 [label=<Kilometers_Driven &le; 73500.0<br/>mse = 0.33<br/>samples = 34<br/>value = 3.562>, fillcolor="#fefdfb"] ;
813 -> 835 ;
836 [label=<Power &le; 103.55<br/>mse = 0.291<br/>samples = 18<br/>value = 3.31>, fillcolor="#fffdfb"] ;
835 -> 836 ;
837 [label=<Location &le; 3.5<br/>mse = 0.187<br/>samples = 17<br/>value = 3.228>, fillcolor="#fffdfc"] ;
836 -> 837 ;
838 [label=<Kilometers_Driven &le; 60500.0<br/>mse = 0.059<br/>samples = 10<br/>value = 3.443>, fillcolor="#fffdfb"] ;
837 -> 838 ;
839 [label=<Location &le; 2.0<br/>mse = 0.023<br/>samples = 2<br/>value = 3.8>, fillcolor="#fefcfb"] ;
838 -> 839 ;
840 [label=<mse = 0.0<br/>samples = 1<br/>value = 3.95>, fillcolor="#fefcfb"] ;
839 -> 840 ;
841 [label=<mse = 0.0<br/>samples = 1<br/>value = 3.65>, fillcolor="#fefcfb"] ;
839 -> 841 ;
842 [label=<Kilometers_Driven &le; 69219.5<br/>mse = 0.029<br/>samples = 8<br/>value = 3.354>, fillcolor="#fffdfb"] ;
838 -> 842 ;
843 [label=<Engine &le; 1198.5<br/>mse = 0.023<br/>samples = 5<br/>value = 3.438>, fillcolor="#fffdfb"] ;
842 -> 843 ;
844 [label=<Name &le; 1274.0<br/>mse = 0.0<br/>samples = 2<br/>value = 3.605>, fillcolor="#fefdfb"] ;
843 -> 844 ;
845 [label=<mse = 0.0<br/>samples = 1<br/>value = 3.61>, fillcolor="#fefcfb"] ;
844 -> 845 ;
846 [label=<mse = 0.0<br/>samples = 1<br/>value = 3.6>, fillcolor="#fefdfb"] ;
844 -> 846 ;
847 [label=<Engine &le; 1297.5<br/>mse = 0.007<br/>samples = 3<br/>value = 3.327>, fillcolor="#fffdfb"] ;
843 -> 847 ;
848 [label=<mse = 0.0<br/>samples = 1<br/>value = 3.21>, fillcolor="#fffdfc"] ;
847 -> 848 ;
849 [label=<Fuel_Type &le; 2.5<br/>mse = 0.0<br/>samples = 2<br/>value = 3.385>, fillcolor="#fffdfb"] ;
847 -> 849 ;
850 [label=<mse = 0.0<br/>samples = 1<br/>value = 3.37>, fillcolor="#fffdfb"] ;
849 -> 850 ;
851 [label=<mse = 0.0<br/>samples = 1<br/>value = 3.4>, fillcolor="#fffdfb"] ;
849 -> 851 ;
852 [label=<Owner_Type &le; 1.0<br/>mse = 0.007<br/>samples = 3<br/>value = 3.213>, fillcolor="#fffdfc"] ;
842 -> 852 ;
853 [label=<mse = 0.0<br/>samples = 1<br/>value = 3.1>, fillcolor="#fffdfc"] ;
852 -> 853 ;
854 [label=<Location &le; 1.0<br/>mse = 0.0<br/>samples = 2<br/>value = 3.27>, fillcolor="#fffdfb"] ;
852 -> 854 ;
855 [label=<mse = 0.0<br/>samples = 1<br/>value = 3.25>, fillcolor="#fffdfc"] ;
854 -> 855 ;
856 [label=<mse = 0.0<br/>samples = 1<br/>value = 3.29>, fillcolor="#fffdfb"] ;
854 -> 856 ;
857 [label=<Transmission &le; 0.5<br/>mse = 0.211<br/>samples = 7<br/>value = 2.921>, fillcolor="#fffdfc"] ;
837 -> 857 ;
858 [label=<mse = 0.0<br/>samples = 1<br/>value = 4.0>, fillcolor="#fefcfb"] ;
857 -> 858 ;
859 [label=<Kilometers_Driven &le; 69540.5<br/>mse = 0.02<br/>samples = 6<br/>value = 2.742>, fillcolor="#fffdfc"] ;
857 -> 859 ;
860 [label=<Mileage &le; 18.4<br/>mse = 0.004<br/>samples = 4<br/>value = 2.65>, fillcolor="#fffdfc"] ;
859 -> 860 ;
861 [label=<Name &le; 1119.0<br/>mse = 0.001<br/>samples = 3<br/>value = 2.617>, fillcolor="#fffdfc"] ;
860 -> 861 ;
862 [label=<mse = 0.0<br/>samples = 2<br/>value = 2.6>, fillcolor="#fffdfc"] ;
861 -> 862 ;
863 [label=<mse = -0.0<br/>samples = 1<br/>value = 2.65>, fillcolor="#fffdfc"] ;
861 -> 863 ;
864 [label=<mse = 0.0<br/>samples = 1<br/>value = 2.75>, fillcolor="#fffdfc"] ;
860 -> 864 ;
865 [label=<Fuel_Type &le; 2.5<br/>mse = 0.001<br/>samples = 2<br/>value = 2.925>, fillcolor="#fffdfc"] ;
859 -> 865 ;
866 [label=<mse = 0.0<br/>samples = 1<br/>value = 2.95>, fillcolor="#fffdfc"] ;
865 -> 866 ;
867 [label=<mse = 0.0<br/>samples = 1<br/>value = 2.9>, fillcolor="#fffdfc"] ;
865 -> 867 ;
868 [label=<mse = -0.0<br/>samples = 1<br/>value = 4.7>, fillcolor="#fefcfa"] ;
836 -> 868 ;
869 [label=<Kilometers_Driven &le; 93763.5<br/>mse = 0.222<br/>samples = 16<br/>value = 3.845>, fillcolor="#fefcfb"] ;
835 -> 869 ;
870 [label=<Name &le; 1112.5<br/>mse = 0.129<br/>samples = 7<br/>value = 4.167>, fillcolor="#fefcfa"] ;
869 -> 870 ;
871 [label=<Mileage &le; 21.5<br/>mse = 0.005<br/>samples = 3<br/>value = 3.81>, fillcolor="#fefcfb"] ;
870 -> 871 ;
872 [label=<mse = 0.0<br/>samples = 1<br/>value = 3.91>, fillcolor="#fefcfb"] ;
871 -> 872 ;
873 [label=<Power &le; 81.97<br/>mse = 0.0<br/>samples = 2<br/>value = 3.76>, fillcolor="#fefcfb"] ;
871 -> 873 ;
874 [label=<mse = 0.0<br/>samples = 1<br/>value = 3.77>, fillcolor="#fefcfb"] ;
873 -> 874 ;
875 [label=<mse = 0.0<br/>samples = 1<br/>value = 3.75>, fillcolor="#fefcfb"] ;
873 -> 875 ;
876 [label=<Mileage &le; 21.75<br/>mse = 0.054<br/>samples = 4<br/>value = 4.435>, fillcolor="#fefcfa"] ;
870 -> 876 ;
877 [label=<Engine &le; 1481.0<br/>mse = 0.023<br/>samples = 3<br/>value = 4.547>, fillcolor="#fefcfa"] ;
876 -> 877 ;
878 [label=<Kilometers_Driven &le; 85580.0<br/>mse = 0.003<br/>samples = 2<br/>value = 4.445>, fillcolor="#fefcfa"] ;
877 -> 878 ;
879 [label=<mse = 0.0<br/>samples = 1<br/>value = 4.39>, fillcolor="#fefcfa"] ;
878 -> 879 ;
880 [label=<mse = -0.0<br/>samples = 1<br/>value = 4.5>, fillcolor="#fefcfa"] ;
878 -> 880 ;
881 [label=<mse = 0.0<br/>samples = 1<br/>value = 4.75>, fillcolor="#fefcfa"] ;
877 -> 881 ;
882 [label=<mse = 0.0<br/>samples = 1<br/>value = 4.1>, fillcolor="#fefcfa"] ;
876 -> 882 ;
883 [label=<Power &le; 106.05<br/>mse = 0.15<br/>samples = 9<br/>value = 3.594>, fillcolor="#fefdfb"] ;
869 -> 883 ;
884 [label=<Name &le; 1111.0<br/>mse = 0.101<br/>samples = 8<br/>value = 3.681>, fillcolor="#fefcfb"] ;
883 -> 884 ;
885 [label=<Name &le; 1068.5<br/>mse = 0.184<br/>samples = 3<br/>value = 3.483>, fillcolor="#fffdfb"] ;
884 -> 885 ;
886 [label=<Location &le; 4.5<br/>mse = 0.063<br/>samples = 2<br/>value = 3.75>, fillcolor="#fefcfb"] ;
885 -> 886 ;
887 [label=<mse = 0.0<br/>samples = 1<br/>value = 3.5>, fillcolor="#fffdfb"] ;
886 -> 887 ;
888 [label=<mse = 0.0<br/>samples = 1<br/>value = 4.0>, fillcolor="#fefcfb"] ;
886 -> 888 ;
889 [label=<mse = 0.0<br/>samples = 1<br/>value = 2.95>, fillcolor="#fffdfc"] ;
885 -> 889 ;
890 [label=<Kilometers_Driven &le; 119314.0<br/>mse = 0.014<br/>samples = 5<br/>value = 3.8>, fillcolor="#fefcfb"] ;
884 -> 890 ;
891 [label=<Kilometers_Driven &le; 104216.5<br/>mse = 0.002<br/>samples = 3<br/>value = 3.717>, fillcolor="#fefcfb"] ;
890 -> 891 ;
892 [label=<mse = 0.0<br/>samples = 2<br/>value = 3.75>, fillcolor="#fefcfb"] ;
891 -> 892 ;
893 [label=<mse = -0.0<br/>samples = 1<br/>value = 3.65>, fillcolor="#fefcfb"] ;
891 -> 893 ;
894 [label=<Power &le; 88.75<br/>mse = 0.006<br/>samples = 2<br/>value = 3.925>, fillcolor="#fefcfb"] ;
890 -> 894 ;
895 [label=<mse = 0.0<br/>samples = 1<br/>value = 3.85>, fillcolor="#fefcfb"] ;
894 -> 895 ;
896 [label=<mse = 0.0<br/>samples = 1<br/>value = 4.0>, fillcolor="#fefcfb"] ;
894 -> 896 ;
897 [label=<mse = 0.0<br/>samples = 1<br/>value = 2.9>, fillcolor="#fffdfc"] ;
883 -> 897 ;
898 [label=<Location &le; 4.5<br/>mse = 0.456<br/>samples = 15<br/>value = 4.575>, fillcolor="#fefcfa"] ;
812 -> 898 ;
899 [label=<Location &le; 1.5<br/>mse = 0.33<br/>samples = 11<br/>value = 4.302>, fillcolor="#fefcfa"] ;
898 -> 899 ;
900 [label=<Kilometers_Driven &le; 65500.0<br/>mse = 0.017<br/>samples = 3<br/>value = 5.017>, fillcolor="#fefbf9"] ;
899 -> 900 ;
901 [label=<Kilometers_Driven &le; 62500.0<br/>mse = 0.016<br/>samples = 2<br/>value = 5.075>, fillcolor="#fefbf9"] ;
900 -> 901 ;
902 [label=<mse = 0.0<br/>samples = 1<br/>value = 4.95>, fillcolor="#fefbf9"] ;
901 -> 902 ;
903 [label=<mse = 0.0<br/>samples = 1<br/>value = 5.2>, fillcolor="#fefbf9"] ;
901 -> 903 ;
904 [label=<mse = 0.0<br/>samples = 1<br/>value = 4.9>, fillcolor="#fefbf9"] ;
900 -> 904 ;
905 [label=<Mileage &le; 22.955<br/>mse = 0.184<br/>samples = 8<br/>value = 4.034>, fillcolor="#fefcfb"] ;
899 -> 905 ;
906 [label=<Kilometers_Driven &le; 96907.0<br/>mse = 0.145<br/>samples = 7<br/>value = 3.943>, fillcolor="#fefcfb"] ;
905 -> 906 ;
907 [label=<Kilometers_Driven &le; 63500.0<br/>mse = 0.108<br/>samples = 6<br/>value = 3.85>, fillcolor="#fefcfb"] ;
906 -> 907 ;
908 [label=<mse = 0.0<br/>samples = 1<br/>value = 4.45>, fillcolor="#fefcfa"] ;
907 -> 908 ;
909 [label=<Kilometers_Driven &le; 85000.0<br/>mse = 0.044<br/>samples = 5<br/>value = 3.73>, fillcolor="#fefcfb"] ;
907 -> 909 ;
910 [label=<Power &le; 117.65<br/>mse = 0.02<br/>samples = 4<br/>value = 3.812>, fillcolor="#fefcfb"] ;
909 -> 910 ;
911 [label=<mse = 0.0<br/>samples = 1<br/>value = 4.0>, fillcolor="#fefcfb"] ;
910 -> 911 ;
912 [label=<Name &le; 416.0<br/>mse = 0.012<br/>samples = 3<br/>value = 3.75>, fillcolor="#fefcfb"] ;
910 -> 912 ;
913 [label=<mse = 0.0<br/>samples = 1<br/>value = 3.85>, fillcolor="#fefcfb"] ;
912 -> 913 ;
914 [label=<Fuel_Type &le; 2.5<br/>mse = 0.01<br/>samples = 2<br/>value = 3.7>, fillcolor="#fefcfb"] ;
912 -> 914 ;
915 [label=<mse = 0.0<br/>samples = 1<br/>value = 3.8>, fillcolor="#fefcfb"] ;
914 -> 915 ;
916 [label=<mse = -0.0<br/>samples = 1<br/>value = 3.6>, fillcolor="#fefdfb"] ;
914 -> 916 ;
917 [label=<mse = 0.0<br/>samples = 1<br/>value = 3.4>, fillcolor="#fffdfb"] ;
909 -> 917 ;
918 [label=<mse = 0.0<br/>samples = 1<br/>value = 4.5>, fillcolor="#fefcfa"] ;
906 -> 918 ;
919 [label=<mse = -0.0<br/>samples = 1<br/>value = 4.67>, fillcolor="#fefcfa"] ;
905 -> 919 ;
920 [label=<Name &le; 528.0<br/>mse = 0.032<br/>samples = 4<br/>value = 5.325>, fillcolor="#fefbf9"] ;
898 -> 920 ;
921 [label=<mse = 0.0<br/>samples = 2<br/>value = 5.5>, fillcolor="#fefbf9"] ;
920 -> 921 ;
922 [label=<Kilometers_Driven &le; 84000.0<br/>mse = 0.003<br/>samples = 2<br/>value = 5.15>, fillcolor="#fefbf9"] ;
920 -> 922 ;
923 [label=<mse = 0.0<br/>samples = 1<br/>value = 5.1>, fillcolor="#fefbf9"] ;
922 -> 923 ;
924 [label=<mse = -0.0<br/>samples = 1<br/>value = 5.2>, fillcolor="#fefbf9"] ;
922 -> 924 ;
925 [label=<Power &le; 114.618<br/>mse = 0.531<br/>samples = 175<br/>value = 2.671>, fillcolor="#fffdfc"] ;
671 -> 925 ;
926 [label=<Name &le; 1718.5<br/>mse = 0.376<br/>samples = 147<br/>value = 2.515>, fillcolor="#fffdfc"] ;
925 -> 926 ;
927 [label=<Mileage &le; 15.25<br/>mse = 0.346<br/>samples = 119<br/>value = 2.408>, fillcolor="#fffdfd"] ;
926 -> 927 ;
928 [label=<Power &le; 108.808<br/>mse = 0.342<br/>samples = 12<br/>value = 1.648>, fillcolor="#fffefe"] ;
927 -> 928 ;
929 [label=<Engine &le; 1383.5<br/>mse = 0.231<br/>samples = 10<br/>value = 1.821>, fillcolor="#fffefd"] ;
928 -> 929 ;
930 [label=<Mileage &le; 14.2<br/>mse = 0.091<br/>samples = 4<br/>value = 1.395>, fillcolor="#fffefe"] ;
929 -> 930 ;
931 [label=<mse = 0.0<br/>samples = 1<br/>value = 1.85>, fillcolor="#fffefd"] ;
930 -> 931 ;
932 [label=<Engine &le; 1259.0<br/>mse = 0.03<br/>samples = 3<br/>value = 1.243>, fillcolor="#fffefe"] ;
930 -> 932 ;
933 [label=<mse = 0.0<br/>samples = 1<br/>value = 1.0>, fillcolor="#fffffe"] ;
932 -> 933 ;
934 [label=<Name &le; 1608.0<br/>mse = 0.0<br/>samples = 2<br/>value = 1.365>, fillcolor="#fffefe"] ;
932 -> 934 ;
